network unknown {
}
variable sameWriter {
    type discrete [ 2 ] { sameWriter_0, sameWriter_1 };
    property weight = None ;
}
variable w1_f1 {
    type discrete [ 4 ] { w1_f1_0, w1_f1_1, w1_f1_2, w1_f1_3 };
    property weight = None ;
}
variable w1_f2 {
    type discrete [ 5 ] { w1_f2_0, w1_f2_1, w1_f2_2, w1_f2_3, w1_f2_4 };
    property weight = None ;
}
variable w1_f3 {
    type discrete [ 3 ] { w1_f3_0, w1_f3_1, w1_f3_2 };
    property weight = None ;
}
variable w1_f4 {
    type discrete [ 5 ] { w1_f4_0, w1_f4_1, w1_f4_2, w1_f4_3, w1_f4_4 };
    property weight = None ;
}
variable w1_f5 {
    type discrete [ 4 ] { w1_f5_0, w1_f5_1, w1_f5_2, w1_f5_3 };
    property weight = None ;
}
variable w1_f6 {
    type discrete [ 4 ] { w1_f6_0, w1_f6_1, w1_f6_2, w1_f6_3 };
    property weight = None ;
}
variable w1_f7 {
    type discrete [ 4 ] { w1_f7_0, w1_f7_1, w1_f7_2, w1_f7_3 };
    property weight = None ;
}
variable w1_f8 {
    type discrete [ 5 ] { w1_f8_0, w1_f8_1, w1_f8_2, w1_f8_3, w1_f8_4 };
    property weight = None ;
}
variable w1_f9 {
    type discrete [ 2 ] { w1_f9_0, w1_f9_1 };
    property weight = None ;
}
variable w2_f1 {
    type discrete [ 4 ] { w2_f1_0, w2_f1_1, w2_f1_2, w2_f1_3 };
    property weight = None ;
}
variable w2_f2 {
    type discrete [ 5 ] { w2_f2_0, w2_f2_1, w2_f2_2, w2_f2_3, w2_f2_4 };
    property weight = None ;
}
variable w2_f3 {
    type discrete [ 3 ] { w2_f3_0, w2_f3_1, w2_f3_2 };
    property weight = None ;
}
variable w2_f4 {
    type discrete [ 5 ] { w2_f4_0, w2_f4_1, w2_f4_2, w2_f4_3, w2_f4_4 };
    property weight = None ;
}
variable w2_f5 {
    type discrete [ 4 ] { w2_f5_0, w2_f5_1, w2_f5_2, w2_f5_3 };
    property weight = None ;
}
variable w2_f6 {
    type discrete [ 4 ] { w2_f6_0, w2_f6_1, w2_f6_2, w2_f6_3 };
    property weight = None ;
}
variable w2_f7 {
    type discrete [ 4 ] { w2_f7_0, w2_f7_1, w2_f7_2, w2_f7_3 };
    property weight = None ;
}
variable w2_f8 {
    type discrete [ 5 ] { w2_f8_0, w2_f8_1, w2_f8_2, w2_f8_3, w2_f8_4 };
    property weight = None ;
}
variable w2_f9 {
    type discrete [ 2 ] { w2_f9_0, w2_f9_1 };
    property weight = None ;
}
probability ( sameWriter ) {
    table 0.49853801169590645, 0.5014619883040936 ;
}
probability ( w1_f1 | w1_f3, w1_f9 ) {
    table 0.2692307692307692, 0.10377358490566038, 0.18974358974358974, 0.10725075528700906, 0.16666666666666666, 0.0967741935483871, 0.6153846153846154, 0.2358490566037736, 0.4307692307692308, 0.270392749244713, 0.3333333333333333, 0.12903225806451613, 0.038461538461538464, 0.44339622641509435, 0.2923076923076923, 0.3564954682779456, 0.3333333333333333, 0.3870967741935484, 0.07692307692307693, 0.2169811320754717, 0.08717948717948718, 0.26586102719033233, 0.16666666666666666, 0.3870967741935484 ;
}
probability ( w1_f2 | w1_f6, w1_f9 ) {
    table 1.0, 0.42857142857142855, 0.18055555555555555, 0.1925925925925926, 0.1259259259259259, 0.17184265010351968, 0.10526315789473684, 0.20359281437125748, 0.0, 0.5714285714285714, 0.6666666666666666, 0.6296296296296297, 0.5925925925925926, 0.4554865424430642, 0.7368421052631579, 0.4491017964071856, 0.0, 0.0, 0.1111111111111111, 0.05925925925925926, 0.18518518518518517, 0.16356107660455488, 0.0, 0.08383233532934131, 0.0, 0.0, 0.0, 0.0, 0.022222222222222223, 0.012422360248447204, 0.0, 0.017964071856287425, 0.0, 0.0, 0.041666666666666664, 0.11851851851851852, 0.07407407407407407, 0.19668737060041408, 0.15789473684210525, 0.24550898203592814 ;
}
probability ( w1_f3 | w1_f5 ) {
    table 0.20765027322404372, 0.0, 0.11742424242424243, 0.07692307692307693, 0.7486338797814208, 1.0, 0.8547979797979798, 0.38461538461538464, 0.04371584699453552, 0.0, 0.027777777777777776, 0.5384615384615384 ;
}
probability ( w1_f4 | w1_f3, w2_f4 ) {
    table 0.3013698630136986, 0.125, 0.0392156862745098, 0.1791044776119403, 0.0, 0.49516129032258066, 0.27605633802816903, 0.36774193548387096, 0.34552102376599636, 0.2972972972972973, 0.17647058823529413, 0.05263157894736842, 0.0, 0.0, 0.0, 0.2054794520547945, 0.40625, 0.13725490196078433, 0.16417910447761194, 0.3333333333333333, 0.1532258064516129, 0.4028169014084507, 0.1935483870967742, 0.15356489945155394, 0.2702702702702703, 0.11764705882352941, 0.47368421052631576, 0.1, 0.1111111111111111, 0.0, 0.3561643835616438, 0.40625, 0.7647058823529411, 0.373134328358209, 0.4444444444444444, 0.05161290322580645, 0.03943661971830986, 0.17419354838709677, 0.03290676416819013, 0.08108108108108109, 0.0, 0.0, 0.1, 0.05555555555555555, 0.0, 0.1095890410958904, 0.0625, 0.058823529411764705, 0.2537313432835821, 0.0, 0.29516129032258065, 0.2704225352112676, 0.23870967741935484, 0.4643510054844607, 0.2702702702702703, 0.11764705882352941, 0.21052631578947367, 0.4, 0.5555555555555556, 0.0, 0.0273972602739726, 0.0, 0.0, 0.029850746268656716, 0.2222222222222222, 0.004838709677419355, 0.011267605633802818, 0.025806451612903226, 0.003656307129798903, 0.08108108108108109, 0.5882352941176471, 0.2631578947368421, 0.4, 0.2777777777777778, 1.0 ;
}
probability ( w1_f5 ) {
    table 0.1783625730994152, 0.037037037037037035, 0.7719298245614035, 0.012670565302144249 ;
}
probability ( w1_f6 | w1_f3, w1_f9 ) {
    table 0.0, 0.009433962264150943, 0.005128205128205128, 0.019637462235649546, 0.0, 0.0, 0.46153846153846156, 0.22641509433962265, 0.29743589743589743, 0.16767371601208458, 0.3333333333333333, 0.0, 0.38461538461538464, 0.5471698113207547, 0.6307692307692307, 0.6072507552870091, 0.3333333333333333, 0.7419354838709677, 0.15384615384615385, 0.2169811320754717, 0.06666666666666667, 0.2054380664652568, 0.3333333333333333, 0.25806451612903225 ;
}
probability ( w1_f7 | sameWriter, w2_f7 ) {
    table 0.49581589958158995, 0.4257142857142857, 0.4318181818181818, 0.5046728971962616, 0.7083333333333334, 0.2937853107344633, 0.1590909090909091, 0.205607476635514, 0.32217573221757323, 0.40285714285714286, 0.23863636363636365, 0.32710280373831774, 0.19791666666666666, 0.6129943502824858, 0.19318181818181818, 0.22429906542056074, 0.0899581589958159, 0.07714285714285714, 0.125, 0.056074766355140186, 0.03333333333333333, 0.0480225988700565, 0.5681818181818182, 0.056074766355140186, 0.09205020920502092, 0.09428571428571429, 0.20454545454545456, 0.11214953271028037, 0.06041666666666667, 0.04519774011299435, 0.07954545454545454, 0.514018691588785 ;
}
probability ( w1_f8 | w1_f9, w2_f8 ) {
    table 0.4782608695652174, 0.08256880733944955, 0.12413793103448276, 0.07792207792207792, 0.18518518518518517, 0.31316725978647686, 0.15447154471544716, 0.15567282321899736, 0.12680115273775217, 0.11711711711711711, 0.18840579710144928, 0.6146788990825688, 0.25517241379310346, 0.44155844155844154, 0.3888888888888889, 0.13523131672597866, 0.33604336043360433, 0.17678100263852242, 0.12103746397694524, 0.15765765765765766, 0.30434782608695654, 0.28440366972477066, 0.5862068965517241, 0.42857142857142855, 0.3333333333333333, 0.18861209964412812, 0.15718157181571815, 0.3324538258575198, 0.1786743515850144, 0.16666666666666666, 0.0, 0.009174311926605505, 0.006896551724137931, 0.012987012987012988, 0.018518518518518517, 0.2206405693950178, 0.23577235772357724, 0.20580474934036938, 0.43804034582132567, 0.18468468468468469, 0.028985507246376812, 0.009174311926605505, 0.027586206896551724, 0.03896103896103896, 0.07407407407407407, 0.1423487544483986, 0.11653116531165311, 0.12928759894459102, 0.13544668587896252, 0.3738738738738739 ;
}
probability ( w1_f9 | w1_f5, w1_f7 ) {
    table 0.35443037974683544, 0.7166666666666667, 0.7777777777777778, 0.35294117647058826, 0.0, 0.07692307692307693, 0.0, 0.0, 0.07712765957446809, 0.21532846715328466, 0.5423728813559322, 0.060240963855421686, 0.0, 0.6, 0.0, 0.0, 0.6455696202531646, 0.2833333333333333, 0.2222222222222222, 0.6470588235294118, 1.0, 0.9230769230769231, 1.0, 1.0, 0.9228723404255319, 0.7846715328467153, 0.4576271186440678, 0.9397590361445783, 1.0, 0.4, 1.0, 1.0 ;
}
probability ( w2_f1 | sameWriter, w1_f1 ) {
    table 0.1, 0.13548387096774195, 0.10795454545454546, 0.15584415584415584, 0.5538461538461539, 0.06129032258064516, 0.0670391061452514, 0.06926406926406926, 0.25384615384615383, 0.3161290322580645, 0.29261363636363635, 0.3203463203463203, 0.17692307692307693, 0.5967741935483871, 0.18435754189944134, 0.1645021645021645, 0.4153846153846154, 0.33548387096774196, 0.3522727272727273, 0.31601731601731603, 0.16153846153846155, 0.21935483870967742, 0.6145251396648045, 0.19913419913419914, 0.23076923076923078, 0.2129032258064516, 0.2471590909090909, 0.2077922077922078, 0.1076923076923077, 0.12258064516129032, 0.1340782122905028, 0.5670995670995671 ;
}
probability ( w2_f2 | sameWriter, w1_f2 ) {
    table 0.1813186813186813, 0.17045454545454544, 0.1791044776119403, 0.16666666666666666, 0.18562874251497005, 0.5769230769230769, 0.09022556390977443, 0.08955223880597014, 0.0, 0.11242603550295859, 0.4945054945054945, 0.5170454545454546, 0.5298507462686567, 0.4166666666666667, 0.5389221556886228, 0.25274725274725274, 0.7462406015037594, 0.34328358208955223, 0.08333333333333333, 0.24260355029585798, 0.17032967032967034, 0.13825757575757575, 0.08955223880597014, 0.0, 0.10778443113772455, 0.06043956043956044, 0.08082706766917293, 0.47761194029850745, 0.16666666666666666, 0.08284023668639054, 0.005494505494505495, 0.005681818181818182, 0.029850746268656716, 0.0, 0.023952095808383235, 0.0, 0.0037593984962406013, 0.007462686567164179, 0.5, 0.01775147928994083, 0.14835164835164835, 0.16856060606060605, 0.17164179104477612, 0.4166666666666667, 0.1437125748502994, 0.10989010989010989, 0.07894736842105263, 0.08208955223880597, 0.25, 0.5443786982248521 ;
}
probability ( w2_f3 | sameWriter, w1_f3 ) {
    table 0.12878787878787878, 0.1288056206088993, 0.13513513513513514, 0.5833333333333334, 0.05813953488372093, 0.13513513513513514, 0.8409090909090909, 0.832552693208431, 0.8648648648648649, 0.3787878787878788, 0.9267441860465117, 0.35135135135135137, 0.030303030303030304, 0.03864168618266979, 0.0, 0.03787878787878788, 0.015116279069767442, 0.5135135135135135 ;
}
probability ( w2_f4 | w2_f3, w2_f9 ) {
    table 0.11538461538461539, 0.1792452830188679, 0.3641025641025641, 0.39274924471299094, 0.16666666666666666, 0.03225806451612903, 0.5769230769230769, 0.1509433962264151, 0.28717948717948716, 0.18882175226586104, 0.3333333333333333, 0.16129032258064516, 0.23076923076923078, 0.5094339622641509, 0.07692307692307693, 0.04833836858006042, 0.0, 0.03225806451612903, 0.07692307692307693, 0.1320754716981132, 0.26666666666666666, 0.3595166163141994, 0.0, 0.3225806451612903, 0.0, 0.02830188679245283, 0.005128205128205128, 0.010574018126888218, 0.5, 0.45161290322580644 ;
}
probability ( w2_f5 | sameWriter, w1_f5 ) {
    table 0.16939890710382513, 0.18421052631578946, 0.17997465145754118, 0.23076923076923078, 0.5737704918032787, 0.05263157894736842, 0.0930817610062893, 0.15384615384615385, 0.0273224043715847, 0.02631578947368421, 0.04055766793409379, 0.0, 0.00546448087431694, 0.5263157894736842, 0.021383647798742137, 0.0, 0.8032786885245902, 0.7894736842105263, 0.7629911280101395, 0.7692307692307693, 0.40437158469945356, 0.42105263157894735, 0.8817610062893082, 0.3076923076923077, 0.0, 0.0, 0.016476552598225603, 0.0, 0.01639344262295082, 0.0, 0.0037735849056603774, 0.5384615384615384 ;
}
probability ( w2_f6 | sameWriter, w1_f6 ) {
    table 0.06666666666666667, 0.014492753623188406, 0.011363636363636364, 0.021621621621621623, 0.5333333333333333, 0.01932367149758454, 0.004838709677419355, 0.0, 0.13333333333333333, 0.2222222222222222, 0.2012987012987013, 0.1891891891891892, 0.13333333333333333, 0.5314009661835749, 0.11290322580645161, 0.13368983957219252, 0.6, 0.5555555555555556, 0.6136363636363636, 0.6108108108108108, 0.3333333333333333, 0.3285024154589372, 0.7951612903225806, 0.29411764705882354, 0.2, 0.20772946859903382, 0.1737012987012987, 0.1783783783783784, 0.0, 0.12077294685990338, 0.08709677419354839, 0.5721925133689839 ;
}
probability ( w2_f7 | w2_f3, w2_f9 ) {
    table 0.34615384615384615, 0.5188679245283019, 0.24102564102564103, 0.5377643504531722, 0.16666666666666666, 0.3548387096774194, 0.5769230769230769, 0.3113207547169811, 0.4461538461538462, 0.3081570996978852, 0.6666666666666666, 0.2903225806451613, 0.038461538461538464, 0.08490566037735849, 0.26666666666666666, 0.03474320241691843, 0.0, 0.0967741935483871, 0.038461538461538464, 0.08490566037735849, 0.046153846153846156, 0.11933534743202417, 0.16666666666666666, 0.25806451612903225 ;
}
probability ( w2_f8 | w2_f3, w2_f9 ) {
    table 0.19230769230769232, 0.16037735849056603, 0.16923076923076924, 0.18126888217522658, 0.0, 0.0, 0.3076923076923077, 0.11320754716981132, 0.37948717948717947, 0.2084592145015106, 0.6666666666666666, 0.0967741935483871, 0.4230769230769231, 0.20754716981132076, 0.4153846153846154, 0.19939577039274925, 0.3333333333333333, 0.45161290322580644, 0.0, 0.42452830188679247, 0.010256410256410256, 0.23564954682779457, 0.0, 0.2903225806451613, 0.07692307692307693, 0.09433962264150944, 0.02564102564102564, 0.17522658610271905, 0.0, 0.16129032258064516 ;
}
probability ( w2_f9 | w2_f3, w2_f5 ) {
    table 0.6578947368421053, 0.5, 0.010752688172043012, 0.0, 0.5182481751824818, 0.02631578947368421, 0.18020679468242246, 0.2, 0.25, 0.5, 0.09090909090909091, 0.2857142857142857, 0.34210526315789475, 0.5, 0.989247311827957, 1.0, 0.48175182481751827, 0.9736842105263158, 0.8197932053175776, 0.8, 0.75, 0.5, 0.9090909090909091, 0.7142857142857143 ;
}
