network unknown {
}
variable sameWriter {
    type discrete [ 2 ] { sameWriter_0, sameWriter_1 };
    property weight = None ;
}
variable w1_f1 {
    type discrete [ 4 ] { w1_f1_0, w1_f1_1, w1_f1_2, w1_f1_3 };
    property weight = None ;
}
variable w1_f2 {
    type discrete [ 5 ] { w1_f2_0, w1_f2_1, w1_f2_2, w1_f2_3, w1_f2_4 };
    property weight = None ;
}
variable w1_f3 {
    type discrete [ 3 ] { w1_f3_0, w1_f3_1, w1_f3_2 };
    property weight = None ;
}
variable w1_f4 {
    type discrete [ 5 ] { w1_f4_0, w1_f4_1, w1_f4_2, w1_f4_3, w1_f4_4 };
    property weight = None ;
}
variable w1_f5 {
    type discrete [ 4 ] { w1_f5_0, w1_f5_1, w1_f5_2, w1_f5_3 };
    property weight = None ;
}
variable w1_f6 {
    type discrete [ 4 ] { w1_f6_0, w1_f6_1, w1_f6_2, w1_f6_3 };
    property weight = None ;
}
variable w1_f7 {
    type discrete [ 4 ] { w1_f7_0, w1_f7_1, w1_f7_2, w1_f7_3 };
    property weight = None ;
}
variable w1_f8 {
    type discrete [ 5 ] { w1_f8_0, w1_f8_1, w1_f8_2, w1_f8_3, w1_f8_4 };
    property weight = None ;
}
variable w1_f9 {
    type discrete [ 2 ] { w1_f9_0, w1_f9_1 };
    property weight = None ;
}
variable w2_f1 {
    type discrete [ 4 ] { w2_f1_0, w2_f1_1, w2_f1_2, w2_f1_3 };
    property weight = None ;
}
variable w2_f2 {
    type discrete [ 5 ] { w2_f2_0, w2_f2_1, w2_f2_2, w2_f2_3, w2_f2_4 };
    property weight = None ;
}
variable w2_f3 {
    type discrete [ 3 ] { w2_f3_0, w2_f3_1, w2_f3_2 };
    property weight = None ;
}
variable w2_f4 {
    type discrete [ 5 ] { w2_f4_0, w2_f4_1, w2_f4_2, w2_f4_3, w2_f4_4 };
    property weight = None ;
}
variable w2_f5 {
    type discrete [ 4 ] { w2_f5_0, w2_f5_1, w2_f5_2, w2_f5_3 };
    property weight = None ;
}
variable w2_f6 {
    type discrete [ 4 ] { w2_f6_0, w2_f6_1, w2_f6_2, w2_f6_3 };
    property weight = None ;
}
variable w2_f7 {
    type discrete [ 4 ] { w2_f7_0, w2_f7_1, w2_f7_2, w2_f7_3 };
    property weight = None ;
}
variable w2_f8 {
    type discrete [ 5 ] { w2_f8_0, w2_f8_1, w2_f8_2, w2_f8_3, w2_f8_4 };
    property weight = None ;
}
variable w2_f9 {
    type discrete [ 2 ] { w2_f9_0, w2_f9_1 };
    property weight = None ;
}
probability ( sameWriter ) {
    table 0.49853801169590645, 0.5014619883040936 ;
}
probability ( w1_f1 | w1_f3, w1_f4, w1_f9 ) {
    table 0.3333333333333333, 0.05263157894736842, 0.26666666666666666, 0.0, 0.16666666666666666, 0.14814814814814814, 0.5, 0.14285714285714285, 0.25, 0.0, 0.2535211267605634, 0.12307692307692308, 0.17857142857142858, 0.096, 0.06666666666666667, 0.21875, 0.15384615384615385, 0.07983193277310924, 0.0, 0.14285714285714285, 0.0, 0.0, 0.0, 0.0, 0.25, 0.0, 0.25, 0.0, 0.3333333333333333, 0.21428571428571427, 0.6666666666666666, 0.3684210526315789, 0.5333333333333333, 0.4375, 0.8333333333333334, 0.12962962962962962, 0.5, 0.14285714285714285, 0.25, 0.6666666666666666, 0.4225352112676056, 0.2230769230769231, 0.48214285714285715, 0.344, 0.3333333333333333, 0.28125, 0.4230769230769231, 0.2815126050420168, 0.0, 0.2857142857142857, 0.0, 1.0, 0.0, 0.0, 0.25, 0.0, 0.25, 0.2, 0.6666666666666666, 0.07142857142857142, 0.0, 0.47368421052631576, 0.06666666666666667, 0.375, 0.0, 0.46296296296296297, 0.0, 0.42857142857142855, 0.25, 0.3333333333333333, 0.2535211267605634, 0.3730769230769231, 0.2857142857142857, 0.352, 0.26666666666666666, 0.40625, 0.34615384615384615, 0.33613445378151263, 1.0, 0.2857142857142857, 0.0, 0.0, 1.0, 0.6, 0.25, 0.0, 0.25, 0.6, 0.0, 0.21428571428571427, 0.0, 0.10526315789473684, 0.13333333333333333, 0.1875, 0.0, 0.25925925925925924, 0.0, 0.2857142857142857, 0.25, 0.0, 0.07042253521126761, 0.28076923076923077, 0.05357142857142857, 0.208, 0.3333333333333333, 0.09375, 0.07692307692307693, 0.3025210084033613, 0.0, 0.2857142857142857, 1.0, 0.0, 0.0, 0.4, 0.25, 1.0, 0.25, 0.2, 0.0, 0.5 ;
}
probability ( w1_f2 | w1_f6, w1_f9 ) {
    table 1.0, 0.42857142857142855, 0.18055555555555555, 0.1925925925925926, 0.1259259259259259, 0.17184265010351968, 0.10526315789473684, 0.20359281437125748, 0.0, 0.5714285714285714, 0.6666666666666666, 0.6296296296296297, 0.5925925925925926, 0.4554865424430642, 0.7368421052631579, 0.4491017964071856, 0.0, 0.0, 0.1111111111111111, 0.05925925925925926, 0.18518518518518517, 0.16356107660455488, 0.0, 0.08383233532934131, 0.0, 0.0, 0.0, 0.0, 0.022222222222222223, 0.012422360248447204, 0.0, 0.017964071856287425, 0.0, 0.0, 0.041666666666666664, 0.11851851851851852, 0.07407407407407407, 0.19668737060041408, 0.15789473684210525, 0.24550898203592814 ;
}
probability ( w1_f3 | w1_f5 ) {
    table 0.20765027322404372, 0.0, 0.11742424242424243, 0.07692307692307693, 0.7486338797814208, 1.0, 0.8547979797979798, 0.38461538461538464, 0.04371584699453552, 0.0, 0.027777777777777776, 0.5384615384615384 ;
}
probability ( w1_f4 | sameWriter, w1_f3, w2_f4 ) {
    table 0.1951219512195122, 0.16129032258064516, 0.07142857142857142, 0.17777777777777778, 0.0, 0.3754152823920266, 0.3502824858757062, 0.45454545454545453, 0.39846743295019155, 0.4074074074074074, 0.08333333333333333, 0.09090909090909091, 0.0, 0.0, 0.2, 0.4375, 0.09090909090909091, 0.02702702702702703, 0.18181818181818182, 0.0, 0.6081504702194357, 0.20224719101123595, 0.2537313432835821, 0.2972027972027972, 0.0, 0.4, 0.0, 0.0, 0.0, 0.0, 0.24390243902439024, 0.22580645161290322, 0.35714285714285715, 0.2, 0.0, 0.2159468438538206, 0.1864406779661017, 0.2159090909090909, 0.21455938697318008, 0.25925925925925924, 0.08333333333333333, 0.36363636363636365, 0.25, 0.1, 0.2, 0.15625, 0.5757575757575758, 0.05405405405405406, 0.09090909090909091, 0.375, 0.09404388714733543, 0.6179775280898876, 0.16417910447761194, 0.0979020979020979, 0.3, 0.2, 0.625, 0.0, 0.125, 0.0, 0.43902439024390244, 0.5161290322580645, 0.42857142857142855, 0.4222222222222222, 1.0, 0.0664451827242525, 0.06779661016949153, 0.03409090909090909, 0.038314176245210725, 0.037037037037037035, 0.0, 0.0, 0.0, 0.1, 0.2, 0.25, 0.30303030303030304, 0.8918918918918919, 0.2727272727272727, 0.375, 0.03761755485893417, 0.011235955056179775, 0.3582089552238806, 0.027972027972027972, 0.2, 0.0, 0.0, 0.16666666666666666, 0.0, 0.0, 0.0975609756097561, 0.0967741935483871, 0.14285714285714285, 0.15555555555555556, 0.0, 0.33222591362126247, 0.3898305084745763, 0.2727272727272727, 0.34099616858237547, 0.2962962962962963, 0.08333333333333333, 0.2727272727272727, 0.5, 0.4, 0.2, 0.125, 0.030303030303030304, 0.02702702702702703, 0.45454545454545453, 0.0, 0.2601880877742947, 0.15168539325842698, 0.19402985074626866, 0.5769230769230769, 0.2, 0.2, 0.125, 0.3333333333333333, 0.75, 0.0, 0.024390243902439025, 0.0, 0.0, 0.044444444444444446, 0.0, 0.009966777408637873, 0.005649717514124294, 0.022727272727272728, 0.007662835249042145, 0.0, 0.75, 0.2727272727272727, 0.25, 0.4, 0.2, 0.03125, 0.0, 0.0, 0.0, 0.25, 0.0, 0.016853932584269662, 0.029850746268656716, 0.0, 0.3, 0.2, 0.25, 0.5, 0.125, 1.0 ;
}
probability ( w1_f5 ) {
    table 0.1783625730994152, 0.037037037037037035, 0.7719298245614035, 0.012670565302144249 ;
}
probability ( w1_f6 | w1_f3, w1_f9 ) {
    table 0.0, 0.009433962264150943, 0.005128205128205128, 0.019637462235649546, 0.0, 0.0, 0.46153846153846156, 0.22641509433962265, 0.29743589743589743, 0.16767371601208458, 0.3333333333333333, 0.0, 0.38461538461538464, 0.5471698113207547, 0.6307692307692307, 0.6072507552870091, 0.3333333333333333, 0.7419354838709677, 0.15384615384615385, 0.2169811320754717, 0.06666666666666667, 0.2054380664652568, 0.3333333333333333, 0.25806451612903225 ;
}
probability ( w1_f7 | sameWriter, w2_f7 ) {
    table 0.49581589958158995, 0.4257142857142857, 0.4318181818181818, 0.5046728971962616, 0.7083333333333334, 0.2937853107344633, 0.1590909090909091, 0.205607476635514, 0.32217573221757323, 0.40285714285714286, 0.23863636363636365, 0.32710280373831774, 0.19791666666666666, 0.6129943502824858, 0.19318181818181818, 0.22429906542056074, 0.0899581589958159, 0.07714285714285714, 0.125, 0.056074766355140186, 0.03333333333333333, 0.0480225988700565, 0.5681818181818182, 0.056074766355140186, 0.09205020920502092, 0.09428571428571429, 0.20454545454545456, 0.11214953271028037, 0.06041666666666667, 0.04519774011299435, 0.07954545454545454, 0.514018691588785 ;
}
probability ( w1_f8 | sameWriter, w1_f9, w2_f8 ) {
    table 0.26666666666666666, 0.10638297872340426, 0.2, 0.08695652173913043, 0.21212121212121213, 0.1103448275862069, 0.18324607329842932, 0.20833333333333334, 0.18787878787878787, 0.14423076923076922, 0.6410256410256411, 0.06451612903225806, 0.05333333333333334, 0.06451612903225806, 0.14285714285714285, 0.5294117647058824, 0.12359550561797752, 0.10160427807486631, 0.07142857142857142, 0.09322033898305085, 0.16666666666666666, 0.48936170212765956, 0.2714285714285714, 0.45652173913043476, 0.5151515151515151, 0.1793103448275862, 0.193717277486911, 0.203125, 0.15757575757575756, 0.23076923076923078, 0.20512820512820512, 0.7096774193548387, 0.24, 0.41935483870967744, 0.19047619047619047, 0.08823529411764706, 0.4887640449438202, 0.1497326203208556, 0.08791208791208792, 0.09322033898305085, 0.5333333333333333, 0.3617021276595745, 0.4714285714285714, 0.41304347826086957, 0.2727272727272727, 0.2689655172413793, 0.17801047120418848, 0.16666666666666666, 0.24848484848484848, 0.21153846153846154, 0.1282051282051282, 0.22580645161290322, 0.6933333333333334, 0.45161290322580644, 0.42857142857142855, 0.10294117647058823, 0.1348314606741573, 0.5026737967914439, 0.11538461538461539, 0.1271186440677966, 0.0, 0.02127659574468085, 0.014285714285714285, 0.0, 0.0, 0.2689655172413793, 0.2879581151832461, 0.2604166666666667, 0.23636363636363636, 0.25961538461538464, 0.0, 0.0, 0.0, 0.03225806451612903, 0.047619047619047616, 0.16911764705882354, 0.1797752808988764, 0.1497326203208556, 0.6208791208791209, 0.11864406779661017, 0.03333333333333333, 0.02127659574468085, 0.04285714285714286, 0.043478260869565216, 0.0, 0.1724137931034483, 0.15706806282722513, 0.16145833333333334, 0.1696969696969697, 0.15384615384615385, 0.02564102564102564, 0.0, 0.013333333333333334, 0.03225806451612903, 0.19047619047619047, 0.11029411764705882, 0.07303370786516854, 0.0962566844919786, 0.1043956043956044, 0.5677966101694916 ;
}
probability ( w1_f9 | w1_f3, w1_f5, w1_f7 ) {
    table 0.8181818181818182, 0.7368421052631579, 0.2, 0.3333333333333333, 0.5, 0.5, 0.5, 0.5, 0.0, 0.034482758620689655, 0.0, 0.0, 0.5, 0.5, 0.0, 0.5, 0.27692307692307694, 0.7567567567567568, 0.9090909090909091, 0.38461538461538464, 0.0, 0.07692307692307693, 0.0, 0.0, 0.0914826498422713, 0.23949579831932774, 0.6153846153846154, 0.05714285714285714, 0.5, 0.3333333333333333, 0.5, 0.0, 0.3333333333333333, 0.25, 0.5, 0.0, 0.5, 0.5, 0.5, 0.5, 0.0, 0.14285714285714285, 0.0, 0.16666666666666666, 0.0, 1.0, 0.5, 0.0, 0.18181818181818182, 0.2631578947368421, 0.8, 0.6666666666666666, 0.5, 0.5, 0.5, 0.5, 1.0, 0.9655172413793104, 1.0, 1.0, 0.5, 0.5, 1.0, 0.5, 0.7230769230769231, 0.24324324324324326, 0.09090909090909091, 0.6153846153846154, 1.0, 0.9230769230769231, 1.0, 1.0, 0.9085173501577287, 0.7605042016806722, 0.38461538461538464, 0.9428571428571428, 0.5, 0.6666666666666666, 0.5, 1.0, 0.6666666666666666, 0.75, 0.5, 1.0, 0.5, 0.5, 0.5, 0.5, 1.0, 0.8571428571428571, 1.0, 0.8333333333333334, 1.0, 0.0, 0.5, 1.0 ;
}
probability ( w2_f1 | sameWriter, w1_f1, w2_f9 ) {
    table 0.16, 0.08571428571428572, 0.24285714285714285, 0.10416666666666667, 0.17721518987341772, 0.08791208791208792, 0.19230769230769232, 0.1452513966480447, 0.6666666666666666, 0.5106382978723404, 0.07317073170731707, 0.05701754385964912, 0.16901408450704225, 0.041811846689895474, 0.07692307692307693, 0.06770833333333333, 0.4, 0.21904761904761905, 0.42857142857142855, 0.2833333333333333, 0.45569620253164556, 0.2454212454212454, 0.4807692307692308, 0.2737430167597765, 0.25, 0.14893617021276595, 0.7560975609756098, 0.5394736842105263, 0.28169014084507044, 0.1602787456445993, 0.3076923076923077, 0.13541666666666666, 0.4, 0.41904761904761906, 0.2571428571428571, 0.35833333333333334, 0.25316455696202533, 0.38095238095238093, 0.23076923076923078, 0.3407821229050279, 0.08333333333333333, 0.19148936170212766, 0.14634146341463414, 0.24561403508771928, 0.5070422535211268, 0.6411149825783972, 0.23076923076923078, 0.19270833333333334, 0.04, 0.2761904761904762, 0.07142857142857142, 0.25416666666666665, 0.11392405063291139, 0.2857142857142857, 0.09615384615384616, 0.24022346368715083, 0.0, 0.14893617021276595, 0.024390243902439025, 0.15789473684210525, 0.04225352112676056, 0.156794425087108, 0.38461538461538464, 0.6041666666666666 ;
}
probability ( w2_f2 | sameWriter, w1_f2 ) {
    table 0.1813186813186813, 0.17045454545454544, 0.1791044776119403, 0.16666666666666666, 0.18562874251497005, 0.5769230769230769, 0.09022556390977443, 0.08955223880597014, 0.0, 0.11242603550295859, 0.4945054945054945, 0.5170454545454546, 0.5298507462686567, 0.4166666666666667, 0.5389221556886228, 0.25274725274725274, 0.7462406015037594, 0.34328358208955223, 0.08333333333333333, 0.24260355029585798, 0.17032967032967034, 0.13825757575757575, 0.08955223880597014, 0.0, 0.10778443113772455, 0.06043956043956044, 0.08082706766917293, 0.47761194029850745, 0.16666666666666666, 0.08284023668639054, 0.005494505494505495, 0.005681818181818182, 0.029850746268656716, 0.0, 0.023952095808383235, 0.0, 0.0037593984962406013, 0.007462686567164179, 0.5, 0.01775147928994083, 0.14835164835164835, 0.16856060606060605, 0.17164179104477612, 0.4166666666666667, 0.1437125748502994, 0.10989010989010989, 0.07894736842105263, 0.08208955223880597, 0.25, 0.5443786982248521 ;
}
probability ( w2_f3 | sameWriter, w1_f3, w2_f5 ) {
    table 0.3, 0.0, 0.10476190476190476, 0.3333333333333333, 0.1935483870967742, 0.0, 0.12061068702290076, 0.07692307692307693, 0.25, 0.3333333333333333, 0.10344827586206896, 0.3333333333333333, 0.627906976744186, 0.0, 0.5833333333333334, 0.5, 0.08029197080291971, 0.0, 0.05726872246696035, 0.0, 0.0, 0.3333333333333333, 0.16666666666666666, 0.0, 0.7, 1.0, 0.8571428571428571, 0.3333333333333333, 0.7548387096774194, 1.0, 0.8519083969465648, 0.38461538461538464, 0.75, 0.3333333333333333, 0.896551724137931, 0.3333333333333333, 0.32558139534883723, 1.0, 0.38095238095238093, 0.5, 0.8978102189781022, 1.0, 0.9324522760646109, 0.5714285714285714, 0.0, 0.3333333333333333, 0.43333333333333335, 0.0, 0.0, 0.0, 0.0380952380952381, 0.3333333333333333, 0.05161290322580645, 0.0, 0.02748091603053435, 0.5384615384615384, 0.0, 0.3333333333333333, 0.0, 0.3333333333333333, 0.046511627906976744, 0.0, 0.03571428571428571, 0.0, 0.021897810218978103, 0.0, 0.010279001468428781, 0.42857142857142855, 1.0, 0.3333333333333333, 0.4, 1.0 ;
}
probability ( w2_f4 | w2_f3, w2_f5, w2_f9 ) {
    table 0.12, 0.3076923076923077, 0.2, 0.2, 0.0, 0.15217391304347827, 0.2, 1.0, 0.38028169014084506, 0.45454545454545453, 0.0, 0.5675675675675675, 0.36065573770491804, 0.37657657657657656, 0.0, 0.0, 0.0, 0.0, 0.2, 0.2, 0.5, 0.05, 0.0, 0.0, 0.6, 0.15384615384615385, 0.2, 0.2, 0.0, 0.15217391304347827, 0.2, 0.0, 0.23943661971830985, 0.10606060606060606, 0.0, 0.13513513513513514, 0.3114754098360656, 0.2018018018018018, 1.0, 0.25, 1.0, 0.3333333333333333, 0.2, 0.2, 0.0, 0.15, 0.0, 0.0, 0.24, 0.15384615384615385, 0.2, 0.2, 0.0, 0.5652173913043478, 0.2, 0.0, 0.08450704225352113, 0.015151515151515152, 1.0, 0.02702702702702703, 0.06557377049180328, 0.05405405405405406, 0.0, 0.0, 0.0, 0.16666666666666666, 0.2, 0.2, 0.0, 0.0, 0.0, 0.0, 0.04, 0.3076923076923077, 0.2, 0.2, 1.0, 0.10869565217391304, 0.2, 0.0, 0.29577464788732394, 0.3787878787878788, 0.0, 0.2702702702702703, 0.2540983606557377, 0.36036036036036034, 0.0, 0.75, 0.0, 0.16666666666666666, 0.2, 0.2, 0.0, 0.35, 0.0, 0.4, 0.0, 0.07692307692307693, 0.2, 0.2, 0.0, 0.021739130434782608, 0.2, 0.0, 0.0, 0.045454545454545456, 0.0, 0.0, 0.00819672131147541, 0.007207207207207207, 0.0, 0.0, 0.0, 0.3333333333333333, 0.2, 0.2, 0.5, 0.45, 1.0, 0.6 ;
}
probability ( w2_f5 | sameWriter, w1_f5 ) {
    table 0.16939890710382513, 0.18421052631578946, 0.17997465145754118, 0.23076923076923078, 0.5737704918032787, 0.05263157894736842, 0.0930817610062893, 0.15384615384615385, 0.0273224043715847, 0.02631578947368421, 0.04055766793409379, 0.0, 0.00546448087431694, 0.5263157894736842, 0.021383647798742137, 0.0, 0.8032786885245902, 0.7894736842105263, 0.7629911280101395, 0.7692307692307693, 0.40437158469945356, 0.42105263157894735, 0.8817610062893082, 0.3076923076923077, 0.0, 0.0, 0.016476552598225603, 0.0, 0.01639344262295082, 0.0, 0.0037735849056603774, 0.5384615384615384 ;
}
probability ( w2_f6 | sameWriter, w1_f6, w2_f9 ) {
    table 0.0, 0.07692307692307693, 0.0, 0.01935483870967742, 0.0, 0.014553014553014554, 0.02702702702702703, 0.02027027027027027, 0.0, 0.6153846153846154, 0.0, 0.027777777777777776, 0.008064516129032258, 0.004032258064516129, 0.0, 0.0, 0.0, 0.15384615384615385, 0.38461538461538464, 0.16774193548387098, 0.2962962962962963, 0.17463617463617465, 0.32432432432432434, 0.1554054054054054, 0.5, 0.07692307692307693, 0.6825396825396826, 0.4652777777777778, 0.1693548387096774, 0.09879032258064516, 0.1794871794871795, 0.12162162162162163, 0.5, 0.6153846153846154, 0.5, 0.5741935483870968, 0.6148148148148148, 0.6133056133056133, 0.6486486486486487, 0.6013513513513513, 0.5, 0.3076923076923077, 0.2857142857142857, 0.3472222222222222, 0.7580645161290323, 0.8044354838709677, 0.5897435897435898, 0.21621621621621623, 0.5, 0.15384615384615385, 0.11538461538461539, 0.23870967741935484, 0.08888888888888889, 0.19750519750519752, 0.0, 0.22297297297297297, 0.0, 0.0, 0.031746031746031744, 0.1597222222222222, 0.06451612903225806, 0.09274193548387097, 0.23076923076923078, 0.6621621621621622 ;
}
probability ( w2_f7 | w2_f3, w2_f5, w2_f9 ) {
    table 0.36, 0.15384615384615385, 0.25, 0.25, 0.0, 0.5760869565217391, 0.25, 0.0, 0.2535211267605634, 0.7121212121212122, 0.0, 0.5675675675675675, 0.23770491803278687, 0.518918918918919, 0.0, 0.0, 0.5, 0.3333333333333333, 0.25, 0.25, 0.0, 0.3, 0.0, 0.6, 0.56, 0.38461538461538464, 0.25, 0.25, 1.0, 0.30434782608695654, 0.25, 0.0, 0.39436619718309857, 0.13636363636363635, 1.0, 0.32432432432432434, 0.4672131147540984, 0.3261261261261261, 1.0, 0.5, 0.5, 0.5, 0.25, 0.25, 0.5, 0.3, 1.0, 0.0, 0.04, 0.3076923076923077, 0.25, 0.25, 0.0, 0.043478260869565216, 0.25, 1.0, 0.28169014084507044, 0.030303030303030304, 0.0, 0.02702702702702703, 0.26229508196721313, 0.036036036036036036, 0.0, 0.0, 0.0, 0.0, 0.25, 0.25, 0.0, 0.15, 0.0, 0.0, 0.04, 0.15384615384615385, 0.25, 0.25, 0.0, 0.07608695652173914, 0.25, 0.0, 0.07042253521126761, 0.12121212121212122, 0.0, 0.08108108108108109, 0.03278688524590164, 0.11891891891891893, 0.0, 0.5, 0.0, 0.16666666666666666, 0.25, 0.25, 0.5, 0.25, 0.0, 0.4 ;
}
probability ( w2_f8 | w2_f3, w2_f4, w2_f9 ) {
    table 0.3333333333333333, 0.15789473684210525, 0.2, 0.0, 0.16666666666666666, 0.24074074074074073, 0.0, 0.07142857142857142, 0.2, 0.0, 0.14084507042253522, 0.17307692307692307, 0.14285714285714285, 0.168, 0.5333333333333333, 0.375, 0.1346153846153846, 0.17647058823529413, 0.0, 0.0, 0.0, 0.0, 0.0, 0.0, 0.2, 0.0, 0.2, 0.0, 0.0, 0.0, 0.6666666666666666, 0.05263157894736842, 0.3333333333333333, 0.375, 0.16666666666666666, 0.09259259259259259, 0.0, 0.0, 0.2, 0.0, 0.38028169014084506, 0.19615384615384615, 0.375, 0.224, 0.3333333333333333, 0.21875, 0.38461538461538464, 0.21008403361344538, 1.0, 0.2857142857142857, 1.0, 0.0, 0.5, 0.2, 0.2, 0.0, 0.2, 0.2, 0.6666666666666666, 0.0, 0.0, 0.2631578947368421, 0.4666666666666667, 0.25, 0.3333333333333333, 0.2222222222222222, 1.0, 0.07142857142857142, 0.2, 0.0, 0.4507042253521127, 0.24615384615384617, 0.4642857142857143, 0.176, 0.06666666666666667, 0.0625, 0.4230769230769231, 0.17647058823529413, 0.0, 0.2857142857142857, 0.0, 1.0, 0.5, 0.2, 0.2, 0.0, 0.2, 0.6, 0.3333333333333333, 0.42857142857142855, 0.0, 0.5263157894736842, 0.0, 0.25, 0.0, 0.3333333333333333, 0.0, 0.7142857142857143, 0.2, 1.0, 0.014084507042253521, 0.2230769230769231, 0.0, 0.296, 0.0, 0.1875, 0.019230769230769232, 0.226890756302521, 0.0, 0.14285714285714285, 0.0, 0.0, 0.0, 0.6, 0.2, 1.0, 0.2, 0.1, 0.0, 0.2857142857142857, 0.0, 0.0, 0.0, 0.125, 0.3333333333333333, 0.1111111111111111, 0.0, 0.14285714285714285, 0.2, 0.0, 0.014084507042253521, 0.16153846153846155, 0.017857142857142856, 0.136, 0.06666666666666667, 0.15625, 0.038461538461538464, 0.21008403361344538, 0.0, 0.2857142857142857, 0.0, 0.0, 0.0, 0.0, 0.2, 0.0, 0.2, 0.1, 0.0, 0.2857142857142857 ;
}
probability ( w2_f9 | w2_f3, w2_f5 ) {
    table 0.6578947368421053, 0.5, 0.010752688172043012, 0.0, 0.5182481751824818, 0.02631578947368421, 0.18020679468242246, 0.2, 0.25, 0.5, 0.09090909090909091, 0.2857142857142857, 0.34210526315789475, 0.5, 0.989247311827957, 1.0, 0.48175182481751827, 0.9736842105263158, 0.8197932053175776, 0.8, 0.75, 0.5, 0.9090909090909091, 0.7142857142857143 ;
}
