network unknown {
}
variable sameWriter {
    type discrete [ 2 ] { sameWriter_0, sameWriter_1 };
    property weight = None ;
}
variable w1_f1 {
    type discrete [ 4 ] { w1_f1_0, w1_f1_1, w1_f1_2, w1_f1_3 };
    property weight = None ;
}
variable w1_f2 {
    type discrete [ 5 ] { w1_f2_0, w1_f2_1, w1_f2_2, w1_f2_3, w1_f2_4 };
    property weight = None ;
}
variable w1_f3 {
    type discrete [ 3 ] { w1_f3_0, w1_f3_1, w1_f3_2 };
    property weight = None ;
}
variable w1_f4 {
    type discrete [ 5 ] { w1_f4_0, w1_f4_1, w1_f4_2, w1_f4_3, w1_f4_4 };
    property weight = None ;
}
variable w1_f5 {
    type discrete [ 4 ] { w1_f5_0, w1_f5_1, w1_f5_2, w1_f5_3 };
    property weight = None ;
}
variable w1_f6 {
    type discrete [ 4 ] { w1_f6_0, w1_f6_1, w1_f6_2, w1_f6_3 };
    property weight = None ;
}
variable w1_f7 {
    type discrete [ 4 ] { w1_f7_0, w1_f7_1, w1_f7_2, w1_f7_3 };
    property weight = None ;
}
variable w1_f8 {
    type discrete [ 5 ] { w1_f8_0, w1_f8_1, w1_f8_2, w1_f8_3, w1_f8_4 };
    property weight = None ;
}
variable w1_f9 {
    type discrete [ 2 ] { w1_f9_0, w1_f9_1 };
    property weight = None ;
}
variable w2_f1 {
    type discrete [ 4 ] { w2_f1_0, w2_f1_1, w2_f1_2, w2_f1_3 };
    property weight = None ;
}
variable w2_f2 {
    type discrete [ 5 ] { w2_f2_0, w2_f2_1, w2_f2_2, w2_f2_3, w2_f2_4 };
    property weight = None ;
}
variable w2_f3 {
    type discrete [ 3 ] { w2_f3_0, w2_f3_1, w2_f3_2 };
    property weight = None ;
}
variable w2_f4 {
    type discrete [ 5 ] { w2_f4_0, w2_f4_1, w2_f4_2, w2_f4_3, w2_f4_4 };
    property weight = None ;
}
variable w2_f5 {
    type discrete [ 4 ] { w2_f5_0, w2_f5_1, w2_f5_2, w2_f5_3 };
    property weight = None ;
}
variable w2_f6 {
    type discrete [ 4 ] { w2_f6_0, w2_f6_1, w2_f6_2, w2_f6_3 };
    property weight = None ;
}
variable w2_f7 {
    type discrete [ 4 ] { w2_f7_0, w2_f7_1, w2_f7_2, w2_f7_3 };
    property weight = None ;
}
variable w2_f8 {
    type discrete [ 5 ] { w2_f8_0, w2_f8_1, w2_f8_2, w2_f8_3, w2_f8_4 };
    property weight = None ;
}
variable w2_f9 {
    type discrete [ 2 ] { w2_f9_0, w2_f9_1 };
    property weight = None ;
}
probability ( sameWriter ) {
    table 0.49853801169590645, 0.5014619883040936 ;
}
probability ( w1_f1 | w1_f3, w1_f4, w1_f5, w1_f9 ) {
    table 0.3333333333333333, 0.25, 0.25, 0.25, 0.25, 0.0, 0.25, 0.0, 0.26666666666666666, 0.0, 0.25, 0.25, 0.25, 0.0, 0.25, 0.25, 0.16666666666666666, 0.5, 0.25, 0.25, 0.25, 0.1346153846153846, 0.25, 0.25, 1.0, 0.0, 0.25, 0.25, 0.0, 0.2, 0.25, 0.25, 0.25, 0.0, 0.25, 0.25, 0.25, 0.0, 0.25, 0.25, 0.2962962962962963, 0.1, 0.25, 0.23809523809523808, 0.22727272727272727, 0.11483253588516747, 0.25, 0.25, 0.11764705882352941, 0.0, 0.25, 0.4, 0.21052631578947367, 0.08928571428571429, 0.0, 0.0, 0.0, 0.0, 1.0, 0.0, 0.0, 0.23333333333333334, 0.25, 0.25, 0.14285714285714285, 0.0, 0.25, 0.0, 0.16129032258064516, 0.095, 0.25, 0.0, 0.25, 0.0, 0.25, 0.25, 0.0, 0.25, 0.25, 0.25, 0.25, 0.25, 0.25, 0.25, 0.0, 0.0, 0.25, 0.25, 0.0, 0.0, 0.25, 0.25, 0.25, 0.0, 0.25, 0.25, 0.25, 0.0, 0.25, 0.25, 0.25, 0.25, 0.25, 0.25, 0.25, 0.0, 0.25, 0.25, 0.25, 0.0, 0.25, 0.0, 0.25, 0.0, 0.25, 0.25, 1.0, 0.3333333333333333, 0.0, 0.0, 0.6666666666666666, 0.0, 0.25, 0.25, 0.25, 0.5, 0.25, 0.0, 0.5333333333333333, 1.0, 0.25, 0.25, 0.25, 0.35714285714285715, 0.25, 0.25, 0.8333333333333334, 0.0, 0.25, 0.25, 0.25, 0.1346153846153846, 0.25, 0.25, 0.0, 0.0, 0.25, 0.25, 1.0, 0.2, 0.25, 0.25, 0.25, 0.0, 0.25, 0.25, 0.25, 1.0, 0.25, 0.25, 0.37037037037037035, 0.36666666666666664, 0.25, 0.19047619047619047, 0.45454545454545453, 0.20574162679425836, 0.25, 0.25, 0.5294117647058824, 0.5714285714285714, 0.25, 0.2, 0.4473684210526316, 0.33035714285714285, 1.0, 1.0, 0.3333333333333333, 0.0, 0.0, 0.0, 0.375, 0.3, 0.25, 0.25, 0.3333333333333333, 0.36, 0.25, 0.3, 0.4838709677419355, 0.275, 0.25, 0.0, 0.25, 0.6666666666666666, 0.25, 0.25, 0.0, 0.0, 0.25, 0.25, 0.25, 0.25, 0.25, 0.25, 0.0, 1.0, 0.25, 0.25, 0.0, 0.0, 0.25, 0.25, 0.25, 0.0, 0.25, 0.25, 0.25, 0.0, 0.25, 0.25, 0.25, 0.25, 0.25, 0.25, 0.25, 0.0, 0.25, 0.25, 0.25, 0.14285714285714285, 0.25, 0.5, 0.25, 0.0, 0.25, 0.25, 0.0, 0.1111111111111111, 1.0, 0.0, 0.0, 0.5, 0.25, 0.25, 0.25, 0.42857142857142855, 0.25, 1.0, 0.06666666666666667, 0.0, 0.25, 0.25, 0.25, 0.42857142857142855, 0.25, 0.25, 0.0, 0.0, 0.25, 0.25, 0.25, 0.4807692307692308, 0.25, 0.25, 0.0, 0.75, 0.25, 0.25, 0.0, 0.3, 0.25, 0.25, 0.25, 1.0, 0.25, 0.25, 0.25, 0.0, 0.25, 0.25, 0.2962962962962963, 0.3333333333333333, 0.25, 0.38095238095238093, 0.22727272727272727, 0.37799043062200954, 0.25, 0.25, 0.35294117647058826, 0.42857142857142855, 0.25, 0.4, 0.2631578947368421, 0.3482142857142857, 0.0, 0.0, 0.5, 1.0, 0.0, 1.0, 0.125, 0.36666666666666664, 0.25, 0.25, 0.42857142857142855, 0.32, 0.25, 0.4, 0.2903225806451613, 0.335, 0.25, 0.3333333333333333, 0.25, 0.0, 0.25, 0.25, 1.0, 0.5, 0.25, 0.25, 0.25, 0.25, 0.25, 0.25, 0.0, 0.0, 0.25, 0.25, 1.0, 0.5, 0.25, 0.25, 0.25, 0.6666666666666666, 0.25, 0.25, 0.25, 0.0, 0.25, 0.25, 0.25, 0.25, 0.25, 0.25, 0.25, 0.0, 0.25, 0.25, 0.25, 0.7142857142857143, 0.25, 0.5, 0.25, 0.0, 0.25, 0.25, 0.0, 0.1111111111111111, 0.0, 0.6666666666666666, 0.0, 0.25, 0.25, 0.25, 0.25, 0.07142857142857142, 0.25, 0.0, 0.13333333333333333, 0.0, 0.25, 0.25, 0.25, 0.21428571428571427, 0.25, 0.25, 0.0, 0.5, 0.25, 0.25, 0.25, 0.25, 0.25, 0.25, 0.0, 0.25, 0.25, 0.25, 0.0, 0.3, 0.25, 0.25, 0.25, 0.0, 0.25, 0.25, 0.25, 0.0, 0.25, 0.25, 0.037037037037037035, 0.2, 0.25, 0.19047619047619047, 0.09090909090909091, 0.3014354066985646, 0.25, 0.25, 0.0, 0.0, 0.25, 0.0, 0.07894736842105263, 0.23214285714285715, 0.0, 0.0, 0.16666666666666666, 0.0, 0.0, 0.0, 0.5, 0.1, 0.25, 0.25, 0.09523809523809523, 0.32, 0.25, 0.3, 0.06451612903225806, 0.295, 0.25, 0.6666666666666666, 0.25, 0.3333333333333333, 0.25, 0.25, 0.0, 0.25, 0.25, 0.25, 0.25, 0.25, 0.25, 0.25, 1.0, 0.0, 0.25, 0.25, 0.0, 0.5, 0.25, 0.25, 0.25, 0.3333333333333333, 0.25, 0.25, 0.25, 1.0, 0.25, 0.25, 0.25, 0.25, 0.25, 0.25, 0.25, 1.0, 0.25, 0.25, 0.25, 0.14285714285714285, 0.25, 0.0, 0.25, 1.0, 0.25, 0.25, 0.0, 0.4444444444444444, 0.0, 0.3333333333333333 ;
}
probability ( w1_f2 | w1_f6, w1_f9 ) {
    table 1.0, 0.42857142857142855, 0.18055555555555555, 0.1925925925925926, 0.1259259259259259, 0.17184265010351968, 0.10526315789473684, 0.20359281437125748, 0.0, 0.5714285714285714, 0.6666666666666666, 0.6296296296296297, 0.5925925925925926, 0.4554865424430642, 0.7368421052631579, 0.4491017964071856, 0.0, 0.0, 0.1111111111111111, 0.05925925925925926, 0.18518518518518517, 0.16356107660455488, 0.0, 0.08383233532934131, 0.0, 0.0, 0.0, 0.0, 0.022222222222222223, 0.012422360248447204, 0.0, 0.017964071856287425, 0.0, 0.0, 0.041666666666666664, 0.11851851851851852, 0.07407407407407407, 0.19668737060041408, 0.15789473684210525, 0.24550898203592814 ;
}
probability ( w1_f3 | w1_f5 ) {
    table 0.20765027322404372, 0.0, 0.11742424242424243, 0.07692307692307693, 0.7486338797814208, 1.0, 0.8547979797979798, 0.38461538461538464, 0.04371584699453552, 0.0, 0.027777777777777776, 0.5384615384615384 ;
}
probability ( w1_f4 | sameWriter, w1_f3, w2_f3, w2_f4 ) {
    table 0.0, 0.4, 0.1111111111111111, 0.0, 0.2, 0.2, 0.12, 0.0, 0.17073170731707318, 0.2, 0.2, 0.0, 0.2, 0.5, 0.0, 0.47368421052631576, 0.4230769230769231, 0.375, 0.35714285714285715, 0.6666666666666666, 0.3678571428571429, 0.3310344827586207, 0.5641025641025641, 0.401673640167364, 0.375, 0.5, 0.5, 0.0, 0.375, 0.375, 0.0, 0.2, 0.0, 0.2, 0.2, 0.1, 0.09090909090909091, 0.0, 0.0, 0.2, 0.2, 0.2, 0.2, 0.2, 0.2, 0.9285714285714286, 0.0, 0.030303030303030304, 0.0, 0.0, 0.05555555555555555, 0.16666666666666666, 0.0, 0.3333333333333333, 0.0, 0.2, 1.0, 0.2, 0.0, 0.0, 0.14285714285714285, 0.36363636363636365, 0.30434782608695654, 0.625, 0.0, 0.6225806451612903, 0.18181818181818182, 0.22727272727272727, 0.28832116788321166, 0.0, 0.0, 1.0, 0.2, 0.25, 0.0, 0.0, 0.2, 0.0, 0.2, 0.2, 0.5, 0.0, 0.0, 0.0, 0.2, 0.2, 0.0, 0.0, 0.0, 0.0, 1.0, 0.2, 0.3333333333333333, 0.0, 0.2, 0.225, 0.2, 0.4, 0.21951219512195122, 0.2, 0.2, 1.0, 0.2, 0.0, 0.0, 0.15789473684210525, 0.15384615384615385, 0.25, 0.07142857142857142, 0.3333333333333333, 0.21785714285714286, 0.19310344827586207, 0.1794871794871795, 0.21338912133891214, 0.25, 0.5, 0.16666666666666666, 0.0, 0.5, 0.25, 0.0, 0.2, 0.3333333333333333, 0.2, 0.2, 0.1, 0.36363636363636365, 0.0, 0.1, 0.2, 0.2, 0.2, 0.2, 0.2, 0.2, 0.0, 0.85, 0.06060606060606061, 0.125, 0.0, 0.2777777777777778, 0.16666666666666666, 0.0, 0.08333333333333333, 0.75, 0.2, 0.0, 0.2, 0.0, 0.0, 0.2857142857142857, 0.2727272727272727, 0.34782608695652173, 0.0, 0.0, 0.08709677419354839, 0.6484848484848484, 0.06818181818181818, 0.09854014598540146, 0.0, 0.5, 0.0, 0.2, 0.25, 0.6, 1.0, 0.2, 0.0, 0.2, 0.2, 0.0, 0.25, 0.0, 0.25, 0.2, 0.2, 1.0, 0.0, 0.0, 0.0, 0.0, 0.4, 0.3333333333333333, 1.0, 0.2, 0.45, 0.56, 0.6, 0.3902439024390244, 0.2, 0.2, 0.0, 0.2, 0.5, 1.0, 0.15789473684210525, 0.07692307692307693, 0.041666666666666664, 0.14285714285714285, 0.0, 0.060714285714285714, 0.06896551724137931, 0.02564102564102564, 0.03347280334728033, 0.0, 0.0, 0.0, 0.0, 0.0, 0.0625, 0.0, 0.2, 0.0, 0.2, 0.2, 0.0, 0.0, 0.0, 0.1, 0.2, 0.2, 0.2, 0.2, 0.2, 0.2, 0.07142857142857142, 0.1, 0.9090909090909091, 0.0, 0.0, 0.3888888888888889, 0.6666666666666666, 0.75, 0.3333333333333333, 0.25, 0.2, 0.0, 0.2, 1.0, 1.0, 0.14285714285714285, 0.0, 0.13043478260869565, 0.0, 0.0, 0.035483870967741936, 0.012121212121212121, 0.4772727272727273, 0.029197080291970802, 0.25, 0.0, 0.0, 0.2, 0.0, 0.2, 0.0, 0.2, 0.0, 0.2, 0.2, 0.0, 0.0, 0.0, 0.0, 0.2, 0.2, 0.0, 1.0, 0.0, 0.0, 0.0, 0.0, 0.2222222222222222, 0.0, 0.2, 0.1, 0.12, 0.0, 0.17073170731707318, 0.2, 0.2, 0.0, 0.2, 0.0, 0.0, 0.15789473684210525, 0.34615384615384615, 0.3125, 0.42857142857142855, 0.0, 0.3464285714285714, 0.4, 0.20512820512820512, 0.34309623430962344, 0.375, 0.0, 0.3333333333333333, 1.0, 0.125, 0.3125, 0.0, 0.2, 0.3333333333333333, 0.2, 0.2, 0.1, 0.2727272727272727, 1.0, 0.4, 0.2, 0.2, 0.2, 0.2, 0.2, 0.2, 0.0, 0.05, 0.0, 0.875, 0.0, 0.2222222222222222, 0.0, 0.25, 0.25, 0.0, 0.2, 0.0, 0.2, 0.0, 0.0, 0.42857142857142855, 0.09090909090909091, 0.17391304347826086, 0.375, 1.0, 0.25483870967741934, 0.15757575757575756, 0.20454545454545456, 0.583941605839416, 0.0, 0.5, 0.0, 0.2, 0.5, 0.2, 0.0, 0.2, 0.5, 0.2, 0.2, 0.25, 0.25, 0.0, 0.5, 0.2, 0.2, 0.0, 0.0, 1.0, 0.0, 0.0, 0.0, 0.0, 0.0, 0.2, 0.025, 0.0, 0.0, 0.04878048780487805, 0.2, 0.2, 0.0, 0.2, 0.0, 0.0, 0.05263157894736842, 0.0, 0.020833333333333332, 0.0, 0.0, 0.007142857142857143, 0.006896551724137931, 0.02564102564102564, 0.008368200836820083, 0.0, 0.0, 0.0, 0.0, 0.0, 0.0, 1.0, 0.2, 0.3333333333333333, 0.2, 0.2, 0.7, 0.2727272727272727, 0.0, 0.4, 0.2, 0.2, 0.2, 0.2, 0.2, 0.2, 0.0, 0.0, 0.0, 0.0, 1.0, 0.05555555555555555, 0.0, 0.0, 0.0, 0.0, 0.2, 0.0, 0.2, 0.0, 0.0, 0.0, 0.2727272727272727, 0.043478260869565216, 0.0, 0.0, 0.0, 0.0, 0.022727272727272728, 0.0, 0.75, 0.0, 0.0, 0.2, 0.0, 0.0, 0.0, 0.2, 0.5, 0.2, 0.2, 0.25, 0.5, 1.0, 0.25, 0.2, 0.2, 0.0, 0.0, 0.0, 1.0 ;
}
probability ( w1_f5 ) {
    table 0.1783625730994152, 0.037037037037037035, 0.7719298245614035, 0.012670565302144249 ;
}
probability ( w1_f6 | w1_f3, w1_f9 ) {
    table 0.0, 0.009433962264150943, 0.005128205128205128, 0.019637462235649546, 0.0, 0.0, 0.46153846153846156, 0.22641509433962265, 0.29743589743589743, 0.16767371601208458, 0.3333333333333333, 0.0, 0.38461538461538464, 0.5471698113207547, 0.6307692307692307, 0.6072507552870091, 0.3333333333333333, 0.7419354838709677, 0.15384615384615385, 0.2169811320754717, 0.06666666666666667, 0.2054380664652568, 0.3333333333333333, 0.25806451612903225 ;
}
probability ( w1_f7 | sameWriter, w2_f7 ) {
    table 0.49581589958158995, 0.4257142857142857, 0.4318181818181818, 0.5046728971962616, 0.7083333333333334, 0.2937853107344633, 0.1590909090909091, 0.205607476635514, 0.32217573221757323, 0.40285714285714286, 0.23863636363636365, 0.32710280373831774, 0.19791666666666666, 0.6129943502824858, 0.19318181818181818, 0.22429906542056074, 0.0899581589958159, 0.07714285714285714, 0.125, 0.056074766355140186, 0.03333333333333333, 0.0480225988700565, 0.5681818181818182, 0.056074766355140186, 0.09205020920502092, 0.09428571428571429, 0.20454545454545456, 0.11214953271028037, 0.06041666666666667, 0.04519774011299435, 0.07954545454545454, 0.514018691588785 ;
}
probability ( w1_f8 | sameWriter, w1_f9, w2_f8, w2_f9 ) {
    table 0.2222222222222222, 0.2857142857142857, 0.10526315789473684, 0.10714285714285714, 0.16666666666666666, 0.21739130434782608, 0.5, 0.06818181818181818, 0.0, 0.21875, 0.06896551724137931, 0.1206896551724138, 0.21212121212121213, 0.168, 0.2857142857142857, 0.16393442622950818, 0.2, 0.18787878787878787, 0.16666666666666666, 0.14285714285714285, 0.7916666666666666, 0.4, 0.022222222222222223, 0.17647058823529413, 0.017241379310344827, 0.17647058823529413, 0.0, 0.06666666666666667, 0.2, 0.125, 0.2857142857142857, 0.5573770491803278, 0.2619047619047619, 0.08088235294117647, 0.1388888888888889, 0.09271523178807947, 0.0, 0.0718232044198895, 0.0, 0.09482758620689655, 0.1111111111111111, 0.19047619047619047, 0.631578947368421, 0.39285714285714285, 0.3333333333333333, 0.2391304347826087, 0.5, 0.45454545454545453, 1.0, 0.5, 0.3103448275862069, 0.14655172413793102, 0.19696969696969696, 0.192, 0.15714285714285714, 0.22950819672131148, 0.2, 0.15757575757575756, 0.16666666666666666, 0.23469387755102042, 0.125, 0.3333333333333333, 0.8444444444444444, 0.35294117647058826, 0.1724137931034483, 0.47058823529411764, 0.0, 0.43333333333333335, 0.0, 0.25, 0.14285714285714285, 0.08196721311475409, 0.11904761904761904, 0.6029411764705882, 0.2777777777777778, 0.11920529801324503, 0.0, 0.08839779005524862, 0.0, 0.09482758620689655, 0.6666666666666666, 0.47619047619047616, 0.21052631578947367, 0.4642857142857143, 0.4166666666666667, 0.5, 0.0, 0.4318181818181818, 0.0, 0.28125, 0.27586206896551724, 0.2672413793103448, 0.18181818181818182, 0.176, 0.21428571428571427, 0.13934426229508196, 0.2, 0.24848484848484848, 0.16666666666666666, 0.21428571428571427, 0.041666666666666664, 0.26666666666666666, 0.13333333333333333, 0.47058823529411764, 0.8103448275862069, 0.29411764705882354, 0.0, 0.4666666666666667, 0.0, 0.5625, 0.21428571428571427, 0.09016393442622951, 0.16666666666666666, 0.125, 0.1388888888888889, 0.5894039735099338, 0.0, 0.11602209944751381, 0.5, 0.1206896551724138, 0.0, 0.0, 0.05263157894736842, 0.0, 0.041666666666666664, 0.0, 0.0, 0.0, 0.0, 0.0, 0.1724137931034483, 0.29310344827586204, 0.22727272727272727, 0.32, 0.21428571428571427, 0.28688524590163933, 0.2, 0.23636363636363636, 0.16666666666666666, 0.2653061224489796, 0.0, 0.0, 0.0, 0.0, 0.0, 0.0, 1.0, 0.0, 0.0, 0.0625, 0.21428571428571427, 0.16393442622950818, 0.3333333333333333, 0.1323529411764706, 0.2777777777777778, 0.11920529801324503, 0.0, 0.6243093922651933, 0.5, 0.11206896551724138, 0.0, 0.047619047619047616, 0.0, 0.03571428571428571, 0.041666666666666664, 0.043478260869565216, 0.0, 0.045454545454545456, 0.0, 0.0, 0.1724137931034483, 0.1724137931034483, 0.18181818181818182, 0.144, 0.12857142857142856, 0.18032786885245902, 0.2, 0.1696969696969697, 0.3333333333333333, 0.14285714285714285, 0.041666666666666664, 0.0, 0.0, 0.0, 0.0, 0.058823529411764705, 0.0, 0.03333333333333333, 0.8, 0.0, 0.14285714285714285, 0.10655737704918032, 0.11904761904761904, 0.058823529411764705, 0.16666666666666666, 0.07947019867549669, 1.0, 0.09944751381215469, 0.0, 0.5775862068965517 ;
}
probability ( w1_f9 | w1_f3, w1_f5, w1_f7, w2_f9 ) {
    table 0.9, 0.75, 0.9375, 0.5909090909090909, 0.5, 0.125, 0.5, 0.25, 0.5, 0.5, 0.5, 0.5, 0.5, 0.5, 0.5, 0.5, 0.0, 0.0, 0.0, 0.041666666666666664, 0.5, 0.0, 0.5, 0.0, 0.5, 0.5, 0.5, 0.5, 0.0, 0.0, 0.5, 0.5, 0.48484848484848486, 0.20618556701030927, 0.95, 0.6851851851851852, 1.0, 0.8095238095238095, 1.0, 0.2, 0.0, 0.0, 0.0, 0.08695652173913043, 0.0, 0.0, 0.0, 0.0, 0.20491803278688525, 0.064453125, 0.3956043956043956, 0.2025974025974026, 0.7352941176470589, 0.5571428571428572, 0.03571428571428571, 0.0625, 0.5, 0.5, 0.6666666666666666, 0.0, 0.5, 0.5, 0.0, 0.0, 0.5, 0.0, 0.5, 0.25, 0.5, 0.5, 0.5, 0.0, 0.5, 0.5, 0.5, 0.5, 0.5, 0.5, 0.5, 0.5, 0.0, 0.0, 0.5, 0.0, 0.0, 0.0, 0.25, 0.125, 0.0, 0.0, 1.0, 0.5, 0.5, 0.5, 0.5, 0.0, 0.1, 0.25, 0.0625, 0.4090909090909091, 0.5, 0.875, 0.5, 0.75, 0.5, 0.5, 0.5, 0.5, 0.5, 0.5, 0.5, 0.5, 1.0, 1.0, 1.0, 0.9583333333333334, 0.5, 1.0, 0.5, 1.0, 0.5, 0.5, 0.5, 0.5, 1.0, 1.0, 0.5, 0.5, 0.5151515151515151, 0.7938144329896907, 0.05, 0.3148148148148148, 0.0, 0.19047619047619047, 0.0, 0.8, 1.0, 1.0, 1.0, 0.9130434782608695, 1.0, 1.0, 1.0, 1.0, 0.7950819672131147, 0.935546875, 0.6043956043956044, 0.7974025974025974, 0.2647058823529412, 0.44285714285714284, 0.9642857142857143, 0.9375, 0.5, 0.5, 0.3333333333333333, 1.0, 0.5, 0.5, 1.0, 1.0, 0.5, 1.0, 0.5, 0.75, 0.5, 0.5, 0.5, 1.0, 0.5, 0.5, 0.5, 0.5, 0.5, 0.5, 0.5, 0.5, 1.0, 1.0, 0.5, 1.0, 1.0, 1.0, 0.75, 0.875, 1.0, 1.0, 0.0, 0.5, 0.5, 0.5, 0.5, 1.0 ;
}
probability ( w2_f1 | sameWriter, w1_f1, w1_f9, w2_f9 ) {
    table 0.2222222222222222, 0.16666666666666666, 0.125, 0.043478260869565216, 0.3333333333333333, 0.08974358974358974, 0.1956521739130435, 0.1111111111111111, 0.06666666666666667, 0.11363636363636363, 0.203125, 0.08296943231441048, 0.14285714285714285, 0.15384615384615385, 0.2, 0.14457831325301204, 0.8, 0.15, 0.36363636363636365, 0.6081081081081081, 0.016666666666666666, 0.16666666666666666, 0.22727272727272727, 0.03225806451612903, 0.029411764705882353, 0.07407407407407407, 0.2972972972972973, 0.038461538461538464, 0.0, 0.0, 0.12, 0.06989247311827956, 0.4444444444444444, 0.1111111111111111, 0.375, 0.2753623188405797, 0.375, 0.2948717948717949, 0.45652173913043476, 0.2777777777777778, 0.6666666666666666, 0.20454545454545456, 0.40625, 0.25327510917030566, 0.5714285714285714, 0.07692307692307693, 0.4666666666666667, 0.2891566265060241, 0.16, 0.25, 0.45454545454545453, 0.12162162162162163, 0.9, 0.2619047619047619, 0.36363636363636365, 0.6021505376344086, 0.14705882352941177, 0.3333333333333333, 0.40540540540540543, 0.1423076923076923, 0.07142857142857142, 0.3333333333333333, 0.44, 0.12903225806451613, 0.3333333333333333, 0.4444444444444444, 0.4375, 0.4057971014492754, 0.16666666666666666, 0.32051282051282054, 0.30434782608695654, 0.3765432098765432, 0.26666666666666666, 0.4318181818181818, 0.25, 0.37117903930131, 0.0, 0.38461538461538464, 0.26666666666666666, 0.3373493975903614, 0.04, 0.35, 0.18181818181818182, 0.14864864864864866, 0.06666666666666667, 0.2857142857142857, 0.36363636363636365, 0.23655913978494625, 0.8235294117647058, 0.2962962962962963, 0.21621621621621623, 0.676923076923077, 0.0, 0.3333333333333333, 0.36, 0.1881720430107527, 0.0, 0.2777777777777778, 0.0625, 0.2753623188405797, 0.125, 0.2948717948717949, 0.043478260869565216, 0.2345679012345679, 0.0, 0.25, 0.140625, 0.2925764192139738, 0.2857142857142857, 0.38461538461538464, 0.06666666666666667, 0.2289156626506024, 0.0, 0.25, 0.0, 0.12162162162162163, 0.016666666666666666, 0.2857142857142857, 0.045454545454545456, 0.12903225806451613, 0.0, 0.2962962962962963, 0.08108108108108109, 0.1423076923076923, 0.9285714285714286, 0.3333333333333333, 0.08, 0.6129032258064516 ;
}
probability ( w2_f2 | sameWriter, w1_f2 ) {
    table 0.1813186813186813, 0.17045454545454544, 0.1791044776119403, 0.16666666666666666, 0.18562874251497005, 0.5769230769230769, 0.09022556390977443, 0.08955223880597014, 0.0, 0.11242603550295859, 0.4945054945054945, 0.5170454545454546, 0.5298507462686567, 0.4166666666666667, 0.5389221556886228, 0.25274725274725274, 0.7462406015037594, 0.34328358208955223, 0.08333333333333333, 0.24260355029585798, 0.17032967032967034, 0.13825757575757575, 0.08955223880597014, 0.0, 0.10778443113772455, 0.06043956043956044, 0.08082706766917293, 0.47761194029850745, 0.16666666666666666, 0.08284023668639054, 0.005494505494505495, 0.005681818181818182, 0.029850746268656716, 0.0, 0.023952095808383235, 0.0, 0.0037593984962406013, 0.007462686567164179, 0.5, 0.01775147928994083, 0.14835164835164835, 0.16856060606060605, 0.17164179104477612, 0.4166666666666667, 0.1437125748502994, 0.10989010989010989, 0.07894736842105263, 0.08208955223880597, 0.25, 0.5443786982248521 ;
}
probability ( w2_f3 | sameWriter, w1_f3, w2_f5 ) {
    table 0.3, 0.0, 0.10476190476190476, 0.3333333333333333, 0.1935483870967742, 0.0, 0.12061068702290076, 0.07692307692307693, 0.25, 0.3333333333333333, 0.10344827586206896, 0.3333333333333333, 0.627906976744186, 0.0, 0.5833333333333334, 0.5, 0.08029197080291971, 0.0, 0.05726872246696035, 0.0, 0.0, 0.3333333333333333, 0.16666666666666666, 0.0, 0.7, 1.0, 0.8571428571428571, 0.3333333333333333, 0.7548387096774194, 1.0, 0.8519083969465648, 0.38461538461538464, 0.75, 0.3333333333333333, 0.896551724137931, 0.3333333333333333, 0.32558139534883723, 1.0, 0.38095238095238093, 0.5, 0.8978102189781022, 1.0, 0.9324522760646109, 0.5714285714285714, 0.0, 0.3333333333333333, 0.43333333333333335, 0.0, 0.0, 0.0, 0.0380952380952381, 0.3333333333333333, 0.05161290322580645, 0.0, 0.02748091603053435, 0.5384615384615384, 0.0, 0.3333333333333333, 0.0, 0.3333333333333333, 0.046511627906976744, 0.0, 0.03571428571428571, 0.0, 0.021897810218978103, 0.0, 0.010279001468428781, 0.42857142857142855, 1.0, 0.3333333333333333, 0.4, 1.0 ;
}
probability ( w2_f4 | w2_f3, w2_f5, w2_f9 ) {
    table 0.12, 0.3076923076923077, 0.2, 0.2, 0.0, 0.15217391304347827, 0.2, 1.0, 0.38028169014084506, 0.45454545454545453, 0.0, 0.5675675675675675, 0.36065573770491804, 0.37657657657657656, 0.0, 0.0, 0.0, 0.0, 0.2, 0.2, 0.5, 0.05, 0.0, 0.0, 0.6, 0.15384615384615385, 0.2, 0.2, 0.0, 0.15217391304347827, 0.2, 0.0, 0.23943661971830985, 0.10606060606060606, 0.0, 0.13513513513513514, 0.3114754098360656, 0.2018018018018018, 1.0, 0.25, 1.0, 0.3333333333333333, 0.2, 0.2, 0.0, 0.15, 0.0, 0.0, 0.24, 0.15384615384615385, 0.2, 0.2, 0.0, 0.5652173913043478, 0.2, 0.0, 0.08450704225352113, 0.015151515151515152, 1.0, 0.02702702702702703, 0.06557377049180328, 0.05405405405405406, 0.0, 0.0, 0.0, 0.16666666666666666, 0.2, 0.2, 0.0, 0.0, 0.0, 0.0, 0.04, 0.3076923076923077, 0.2, 0.2, 1.0, 0.10869565217391304, 0.2, 0.0, 0.29577464788732394, 0.3787878787878788, 0.0, 0.2702702702702703, 0.2540983606557377, 0.36036036036036034, 0.0, 0.75, 0.0, 0.16666666666666666, 0.2, 0.2, 0.0, 0.35, 0.0, 0.4, 0.0, 0.07692307692307693, 0.2, 0.2, 0.0, 0.021739130434782608, 0.2, 0.0, 0.0, 0.045454545454545456, 0.0, 0.0, 0.00819672131147541, 0.007207207207207207, 0.0, 0.0, 0.0, 0.3333333333333333, 0.2, 0.2, 0.5, 0.45, 1.0, 0.6 ;
}
probability ( w2_f5 | sameWriter, w1_f5 ) {
    table 0.16939890710382513, 0.18421052631578946, 0.17997465145754118, 0.23076923076923078, 0.5737704918032787, 0.05263157894736842, 0.0930817610062893, 0.15384615384615385, 0.0273224043715847, 0.02631578947368421, 0.04055766793409379, 0.0, 0.00546448087431694, 0.5263157894736842, 0.021383647798742137, 0.0, 0.8032786885245902, 0.7894736842105263, 0.7629911280101395, 0.7692307692307693, 0.40437158469945356, 0.42105263157894735, 0.8817610062893082, 0.3076923076923077, 0.0, 0.0, 0.016476552598225603, 0.0, 0.01639344262295082, 0.0, 0.0037735849056603774, 0.5384615384615384 ;
}
probability ( w2_f6 | sameWriter, w1_f6, w1_f9, w2_f9 ) {
    table 0.25, 0.0, 0.0, 0.08333333333333333, 0.0, 0.03508771929824561, 0.0, 0.01020408163265306, 0.0, 0.0196078431372549, 0.0, 0.013192612137203167, 0.0, 0.0, 0.034482758620689655, 0.021897810218978103, 0.25, 0.0, 0.0, 0.6666666666666666, 0.0, 0.06666666666666667, 0.0, 0.017543859649122806, 0.0, 0.0, 0.022222222222222223, 0.004555808656036446, 0.0, 0.0, 0.0, 0.0, 0.25, 0.0, 0.0, 0.16666666666666666, 0.4, 0.21052631578947367, 0.3783783783783784, 0.14285714285714285, 0.25, 0.10784313725490197, 0.3106796116504854, 0.19261213720316622, 0.25, 0.09090909090909091, 0.3448275862068966, 0.16058394160583941, 0.25, 0.0, 0.5, 0.08333333333333333, 0.9047619047619048, 0.13333333333333333, 0.23809523809523808, 0.5526315789473685, 0.06329113924050633, 0.21052631578947367, 0.35555555555555557, 0.08428246013667426, 0.08333333333333333, 0.2857142857142857, 0.2222222222222222, 0.11347517730496454, 0.25, 0.0, 0.5, 0.6666666666666666, 0.4666666666666667, 0.45614035087719296, 0.5135135135135135, 0.6428571428571429, 0.59375, 0.6078431372549019, 0.6213592233009708, 0.6147757255936676, 0.75, 0.5454545454545454, 0.6206896551724138, 0.6058394160583942, 0.25, 1.0, 0.5, 0.25, 0.07142857142857142, 0.5333333333333333, 0.7142857142857143, 0.2982456140350877, 0.8734177215189873, 0.49122807017543857, 0.5555555555555556, 0.8451025056947609, 0.3333333333333333, 0.42857142857142855, 0.7037037037037037, 0.20567375886524822, 0.25, 1.0, 0.5, 0.08333333333333333, 0.13333333333333333, 0.2982456140350877, 0.10810810810810811, 0.20408163265306123, 0.15625, 0.2647058823529412, 0.06796116504854369, 0.17941952506596306, 0.0, 0.36363636363636365, 0.0, 0.2116788321167883, 0.25, 0.0, 0.0, 0.0, 0.023809523809523808, 0.26666666666666666, 0.047619047619047616, 0.13157894736842105, 0.06329113924050633, 0.2982456140350877, 0.06666666666666667, 0.06605922551252848, 0.5833333333333334, 0.2857142857142857, 0.07407407407407407, 0.6808510638297872 ;
}
probability ( w2_f7 | w2_f3, w2_f5, w2_f9 ) {
    table 0.36, 0.15384615384615385, 0.25, 0.25, 0.0, 0.5760869565217391, 0.25, 0.0, 0.2535211267605634, 0.7121212121212122, 0.0, 0.5675675675675675, 0.23770491803278687, 0.518918918918919, 0.0, 0.0, 0.5, 0.3333333333333333, 0.25, 0.25, 0.0, 0.3, 0.0, 0.6, 0.56, 0.38461538461538464, 0.25, 0.25, 1.0, 0.30434782608695654, 0.25, 0.0, 0.39436619718309857, 0.13636363636363635, 1.0, 0.32432432432432434, 0.4672131147540984, 0.3261261261261261, 1.0, 0.5, 0.5, 0.5, 0.25, 0.25, 0.5, 0.3, 1.0, 0.0, 0.04, 0.3076923076923077, 0.25, 0.25, 0.0, 0.043478260869565216, 0.25, 1.0, 0.28169014084507044, 0.030303030303030304, 0.0, 0.02702702702702703, 0.26229508196721313, 0.036036036036036036, 0.0, 0.0, 0.0, 0.0, 0.25, 0.25, 0.0, 0.15, 0.0, 0.0, 0.04, 0.15384615384615385, 0.25, 0.25, 0.0, 0.07608695652173914, 0.25, 0.0, 0.07042253521126761, 0.12121212121212122, 0.0, 0.08108108108108109, 0.03278688524590164, 0.11891891891891893, 0.0, 0.5, 0.0, 0.16666666666666666, 0.25, 0.25, 0.5, 0.25, 0.0, 0.4 ;
}
probability ( w2_f8 | w2_f3, w2_f4, w2_f5, w2_f9 ) {
    table 0.3333333333333333, 0.5, 0.2, 0.2, 0.2, 0.07142857142857142, 0.2, 0.0, 0.2, 0.0, 0.2, 0.2, 0.2, 0.0, 0.2, 0.2, 0.16666666666666666, 0.5, 0.2, 0.2, 0.2, 0.23076923076923078, 0.2, 0.2, 0.0, 0.25, 0.2, 0.2, 0.0, 0.0, 0.2, 0.2, 0.2, 0.0, 0.2, 0.2, 0.2, 0.0, 0.2, 0.2, 0.0, 0.2, 0.2, 0.14285714285714285, 0.22727272727272727, 0.1722488038277512, 0.2, 0.2, 0.11764705882352941, 0.42857142857142855, 0.2, 0.0, 0.15789473684210525, 0.16071428571428573, 0.0, 0.0, 0.3333333333333333, 0.0, 0.0, 0.0, 0.75, 0.4, 0.2, 0.2, 0.19047619047619047, 0.24, 0.2, 0.0, 0.0967741935483871, 0.18, 0.2, 0.0, 0.2, 0.0, 0.2, 0.2, 0.0, 0.0, 0.2, 0.2, 0.2, 0.2, 0.2, 0.2, 0.0, 0.0, 0.2, 0.2, 0.0, 0.0, 0.2, 0.2, 0.2, 0.0, 0.2, 0.2, 0.2, 0.0, 0.2, 0.2, 0.2, 0.2, 0.2, 0.2, 0.2, 0.0, 0.2, 0.2, 0.2, 0.0, 0.2, 0.0, 0.2, 0.0, 0.2, 0.2, 0.0, 0.0, 0.0, 0.0, 0.6666666666666666, 0.0, 0.2, 0.2, 0.2, 0.07142857142857142, 0.2, 0.0, 0.3333333333333333, 0.0, 0.2, 0.2, 0.2, 0.42857142857142855, 0.2, 0.2, 0.16666666666666666, 0.0, 0.2, 0.2, 0.2, 0.09615384615384616, 0.2, 0.2, 0.0, 0.0, 0.2, 0.2, 0.0, 0.0, 0.2, 0.2, 0.2, 0.0, 0.2, 0.2, 0.2, 0.0, 0.2, 0.2, 0.37037037037037035, 0.13333333333333333, 0.2, 0.2857142857142857, 0.38636363636363635, 0.19617224880382775, 0.2, 0.2, 0.35294117647058826, 0.14285714285714285, 0.2, 0.0, 0.39473684210526316, 0.24107142857142858, 0.0, 0.0, 0.3333333333333333, 0.0, 1.0, 1.0, 0.25, 0.2, 0.2, 0.2, 0.23809523809523808, 0.12, 0.2, 0.4, 0.4838709677419355, 0.21, 0.2, 0.3333333333333333, 0.2, 0.6666666666666666, 0.2, 0.2, 1.0, 0.0, 0.2, 0.2, 0.2, 0.2, 0.2, 0.2, 1.0, 0.0, 0.2, 0.2, 0.5, 0.0, 0.2, 0.2, 0.2, 0.3333333333333333, 0.2, 0.2, 0.2, 0.0, 0.2, 0.2, 0.2, 0.2, 0.2, 0.2, 0.2, 0.0, 0.2, 0.2, 0.2, 0.14285714285714285, 0.2, 0.5, 0.2, 0.0, 0.2, 0.2, 1.0, 0.0, 0.5, 0.0, 0.0, 0.0, 0.2, 0.2, 0.2, 0.35714285714285715, 0.2, 0.0, 0.4666666666666667, 1.0, 0.2, 0.2, 0.2, 0.14285714285714285, 0.2, 0.2, 0.3333333333333333, 0.5, 0.2, 0.2, 0.2, 0.21153846153846154, 0.2, 0.2, 1.0, 0.0, 0.2, 0.2, 1.0, 0.1, 0.2, 0.2, 0.2, 0.0, 0.2, 0.2, 0.2, 0.0, 0.2, 0.2, 0.6296296296296297, 0.3, 0.2, 0.3333333333333333, 0.3409090909090909, 0.22966507177033493, 0.2, 0.2, 0.47058823529411764, 0.14285714285714285, 0.2, 0.2, 0.4473684210526316, 0.17857142857142858, 1.0, 0.0, 0.16666666666666666, 0.0, 0.0, 0.0, 0.0, 0.06666666666666667, 0.2, 0.2, 0.47619047619047616, 0.16, 0.2, 0.4, 0.3870967741935484, 0.17, 0.2, 0.0, 0.2, 0.3333333333333333, 0.2, 0.2, 0.0, 0.25, 0.2, 0.2, 0.2, 0.2, 0.2, 0.2, 0.0, 1.0, 0.2, 0.2, 0.5, 0.0, 0.2, 0.2, 0.2, 0.3333333333333333, 0.2, 0.2, 0.2, 0.0, 0.2, 0.2, 0.2, 0.2, 0.2, 0.2, 0.2, 0.0, 0.2, 0.2, 0.2, 0.7142857142857143, 0.2, 0.5, 0.2, 0.5, 0.2, 0.2, 0.0, 0.4444444444444444, 0.5, 0.3333333333333333, 0.0, 0.5, 0.2, 0.2, 0.2, 0.5, 0.2, 1.0, 0.0, 0.0, 0.2, 0.2, 0.2, 0.2857142857142857, 0.2, 0.2, 0.0, 0.0, 0.2, 0.2, 0.2, 0.34615384615384615, 0.2, 0.2, 0.0, 0.5, 0.2, 0.2, 0.0, 0.8, 0.2, 0.2, 0.2, 1.0, 0.2, 0.2, 0.2, 1.0, 0.2, 0.2, 0.0, 0.2, 0.2, 0.19047619047619047, 0.022727272727272728, 0.22966507177033493, 0.2, 0.2, 0.0, 0.2857142857142857, 0.2, 0.6, 0.0, 0.2767857142857143, 0.0, 1.0, 0.0, 1.0, 0.0, 0.0, 0.0, 0.16666666666666666, 0.2, 0.2, 0.047619047619047616, 0.32, 0.2, 0.0, 0.0, 0.23, 0.2, 0.0, 0.2, 0.0, 0.2, 0.2, 0.0, 0.25, 0.2, 0.2, 0.2, 0.2, 0.2, 0.2, 0.0, 0.0, 0.2, 0.2, 0.0, 1.0, 0.2, 0.2, 0.2, 0.3333333333333333, 0.2, 0.2, 0.2, 1.0, 0.2, 0.2, 0.2, 0.2, 0.2, 0.2, 0.2, 1.0, 0.2, 0.2, 0.2, 0.0, 0.2, 0.0, 0.2, 0.5, 0.2, 0.2, 0.0, 0.3333333333333333, 0.0, 0.0, 0.0, 0.0, 0.2, 0.2, 0.2, 0.0, 0.2, 0.0, 0.0, 0.0, 0.2, 0.2, 0.2, 0.14285714285714285, 0.2, 0.2, 0.3333333333333333, 0.0, 0.2, 0.2, 0.2, 0.11538461538461539, 0.2, 0.2, 0.0, 0.25, 0.2, 0.2, 0.0, 0.1, 0.2, 0.2, 0.2, 0.0, 0.2, 0.2, 0.2, 0.0, 0.2, 0.2, 0.0, 0.16666666666666666, 0.2, 0.047619047619047616, 0.022727272727272728, 0.1722488038277512, 0.2, 0.2, 0.058823529411764705, 0.0, 0.2, 0.2, 0.0, 0.14285714285714285, 0.0, 0.0, 0.16666666666666666, 0.0, 0.0, 0.0, 0.0, 0.16666666666666666, 0.2, 0.2, 0.047619047619047616, 0.16, 0.2, 0.2, 0.03225806451612903, 0.21, 0.2, 0.6666666666666666, 0.2, 0.0, 0.2, 0.2, 0.0, 0.5, 0.2, 0.2, 0.2, 0.2, 0.2, 0.2, 0.0, 0.0, 0.2, 0.2, 0.0, 0.0, 0.2, 0.2, 0.2, 0.0, 0.2, 0.2, 0.2, 0.0, 0.2, 0.2, 0.2, 0.2, 0.2, 0.2, 0.2, 0.0, 0.2, 0.2, 0.2, 0.14285714285714285, 0.2, 0.0, 0.2, 0.0, 0.2, 0.2, 0.0, 0.2222222222222222, 0.0, 0.6666666666666666 ;
}
probability ( w2_f9 | w2_f3, w2_f5 ) {
    table 0.6578947368421053, 0.5, 0.010752688172043012, 0.0, 0.5182481751824818, 0.02631578947368421, 0.18020679468242246, 0.2, 0.25, 0.5, 0.09090909090909091, 0.2857142857142857, 0.34210526315789475, 0.5, 0.989247311827957, 1.0, 0.48175182481751827, 0.9736842105263158, 0.8197932053175776, 0.8, 0.75, 0.5, 0.9090909090909091, 0.7142857142857143 ;
}
