network unknown {
}
variable sameWriter {
    type discrete [ 2 ] { sameWriter_0, sameWriter_1 };
    property weight = None ;
}
variable w1_f1 {
    type discrete [ 4 ] { w1_f1_0, w1_f1_1, w1_f1_2, w1_f1_3 };
    property weight = None ;
}
variable w1_f2 {
    type discrete [ 5 ] { w1_f2_0, w1_f2_1, w1_f2_2, w1_f2_3, w1_f2_4 };
    property weight = None ;
}
variable w1_f3 {
    type discrete [ 3 ] { w1_f3_0, w1_f3_1, w1_f3_2 };
    property weight = None ;
}
variable w1_f4 {
    type discrete [ 5 ] { w1_f4_0, w1_f4_1, w1_f4_2, w1_f4_3, w1_f4_4 };
    property weight = None ;
}
variable w1_f5 {
    type discrete [ 4 ] { w1_f5_0, w1_f5_1, w1_f5_2, w1_f5_3 };
    property weight = None ;
}
variable w1_f6 {
    type discrete [ 4 ] { w1_f6_0, w1_f6_1, w1_f6_2, w1_f6_3 };
    property weight = None ;
}
variable w1_f7 {
    type discrete [ 4 ] { w1_f7_0, w1_f7_1, w1_f7_2, w1_f7_3 };
    property weight = None ;
}
variable w1_f8 {
    type discrete [ 5 ] { w1_f8_0, w1_f8_1, w1_f8_2, w1_f8_3, w1_f8_4 };
    property weight = None ;
}
variable w1_f9 {
    type discrete [ 2 ] { w1_f9_0, w1_f9_1 };
    property weight = None ;
}
variable w2_f1 {
    type discrete [ 4 ] { w2_f1_0, w2_f1_1, w2_f1_2, w2_f1_3 };
    property weight = None ;
}
variable w2_f2 {
    type discrete [ 5 ] { w2_f2_0, w2_f2_1, w2_f2_2, w2_f2_3, w2_f2_4 };
    property weight = None ;
}
variable w2_f3 {
    type discrete [ 3 ] { w2_f3_0, w2_f3_1, w2_f3_2 };
    property weight = None ;
}
variable w2_f4 {
    type discrete [ 5 ] { w2_f4_0, w2_f4_1, w2_f4_2, w2_f4_3, w2_f4_4 };
    property weight = None ;
}
variable w2_f5 {
    type discrete [ 4 ] { w2_f5_0, w2_f5_1, w2_f5_2, w2_f5_3 };
    property weight = None ;
}
variable w2_f6 {
    type discrete [ 4 ] { w2_f6_0, w2_f6_1, w2_f6_2, w2_f6_3 };
    property weight = None ;
}
variable w2_f7 {
    type discrete [ 4 ] { w2_f7_0, w2_f7_1, w2_f7_2, w2_f7_3 };
    property weight = None ;
}
variable w2_f8 {
    type discrete [ 5 ] { w2_f8_0, w2_f8_1, w2_f8_2, w2_f8_3, w2_f8_4 };
    property weight = None ;
}
variable w2_f9 {
    type discrete [ 2 ] { w2_f9_0, w2_f9_1 };
    property weight = None ;
}
probability ( sameWriter ) {
    table 0.49853801169590645, 0.5014619883040936 ;
}
probability ( w1_f1 | w1_f9 ) {
    table 0.19823788546255505, 0.10638297872340426, 0.44933920704845814, 0.26032540675844806, 0.2643171806167401, 0.3692115143929912, 0.0881057268722467, 0.2640801001251564 ;
}
probability ( w1_f2 | w1_f6 ) {
    table 0.4666666666666667, 0.18840579710144928, 0.16181229773462782, 0.1935483870967742, 0.5333333333333333, 0.642512077294686, 0.4854368932038835, 0.478494623655914, 0.0, 0.07729468599033816, 0.16828478964401294, 0.07526881720430108, 0.0, 0.0, 0.014563106796116505, 0.016129032258064516, 0.0, 0.09178743961352658, 0.16990291262135923, 0.23655913978494625 ;
}
probability ( w1_f3 | w1_f5 ) {
    table 0.20765027322404372, 0.0, 0.11742424242424243, 0.07692307692307693, 0.7486338797814208, 1.0, 0.8547979797979798, 0.38461538461538464, 0.04371584699453552, 0.0, 0.027777777777777776, 0.5384615384615384 ;
}
probability ( w1_f4 | w1_f3 ) {
    table 0.16666666666666666, 0.3862310385064177, 0.05405405405405406, 0.23484848484848486, 0.21120186697782964, 0.1891891891891892, 0.45454545454545453, 0.05484247374562427, 0.02702702702702703, 0.12121212121212122, 0.338389731621937, 0.2702702702702703, 0.022727272727272728, 0.009334889148191364, 0.4594594594594595 ;
}
probability ( w1_f5 ) {
    table 0.1783625730994152, 0.037037037037037035, 0.7719298245614035, 0.012670565302144249 ;
}
probability ( w1_f6 | w1_f9 ) {
    table 0.004405286343612335, 0.017521902377972465, 0.31718061674008813, 0.16896120150187735, 0.5947136563876652, 0.60450563204005, 0.08370044052863436, 0.20901126408010012 ;
}
probability ( w1_f7 | w2_f7 ) {
    table 0.6022964509394572, 0.359375, 0.29545454545454547, 0.35514018691588783, 0.2599164926931106, 0.5085227272727273, 0.2159090909090909, 0.2757009345794392, 0.061586638830897704, 0.0625, 0.3465909090909091, 0.056074766355140186, 0.07620041753653445, 0.06960227272727272, 0.14204545454545456, 0.3130841121495327 ;
}
probability ( w1_f8 | w1_f9 ) {
    table 0.16740088105726872, 0.17146433041301626, 0.3788546255506608, 0.19148936170212766, 0.41409691629955947, 0.21026282853566958, 0.00881057268722467, 0.26282853566958697, 0.030837004405286344, 0.1639549436795995 ;
}
probability ( w1_f9 | w1_f5 ) {
    table 0.5355191256830601, 0.02631578947368421, 0.15782828282828282, 0.23076923076923078, 0.4644808743169399, 0.9736842105263158, 0.8421717171717171, 0.7692307692307693 ;
}
probability ( w2_f1 | w1_f1 ) {
    table 0.3269230769230769, 0.09838709677419355, 0.08732394366197183, 0.11255411255411256, 0.2153846153846154, 0.45645161290322583, 0.2380281690140845, 0.24242424242424243, 0.28846153846153844, 0.27741935483870966, 0.48450704225352115, 0.25757575757575757, 0.16923076923076924, 0.16774193548387098, 0.19014084507042253, 0.3874458874458874 ;
}
probability ( w2_f2 | w1_f2 ) {
    table 0.3791208791208791, 0.13018867924528302, 0.13432835820895522, 0.08333333333333333, 0.1488095238095238, 0.37362637362637363, 0.6320754716981132, 0.43656716417910446, 0.25, 0.3898809523809524, 0.11538461538461539, 0.10943396226415095, 0.2835820895522388, 0.08333333333333333, 0.09523809523809523, 0.0027472527472527475, 0.0047169811320754715, 0.018656716417910446, 0.25, 0.020833333333333332, 0.12912087912087913, 0.12358490566037736, 0.12686567164179105, 0.3333333333333333, 0.34523809523809523 ;
}
probability ( w2_f3 | w1_f3 ) {
    table 0.3560606060606061, 0.09334889148191365, 0.13513513513513514, 0.6098484848484849, 0.8798133022170361, 0.6081081081081081, 0.03409090909090909, 0.026837806301050177, 0.25675675675675674 ;
}
probability ( w2_f4 | w2_f3 ) {
    table 0.16666666666666666, 0.3862310385064177, 0.05405405405405406, 0.23484848484848486, 0.21120186697782964, 0.1891891891891892, 0.45454545454545453, 0.05484247374562427, 0.02702702702702703, 0.12121212121212122, 0.338389731621937, 0.2702702702702703, 0.022727272727272728, 0.009334889148191364, 0.4594594594594595 ;
}
probability ( w2_f5 | w1_f5 ) {
    table 0.37158469945355194, 0.11842105263157894, 0.13636363636363635, 0.19230769230769232, 0.01639344262295082, 0.27631578947368424, 0.030934343434343436, 0.0, 0.6038251366120219, 0.6052631578947368, 0.82260101010101, 0.5384615384615384, 0.00819672131147541, 0.0, 0.010101010101010102, 0.2692307692307692 ;
}
probability ( w2_f6 | w1_f6 ) {
    table 0.3, 0.016908212560386472, 0.008090614886731391, 0.010752688172043012, 0.13333333333333333, 0.37681159420289856, 0.156957928802589, 0.16129032258064516, 0.4666666666666667, 0.4420289855072464, 0.7046925566343042, 0.45161290322580644, 0.1, 0.1642512077294686, 0.1302588996763754, 0.3763440860215054 ;
}
probability ( w2_f7 | w2_f9 ) {
    table 0.2511013215859031, 0.5281602002503129, 0.4669603524229075, 0.3078848560700876, 0.23348017621145375, 0.04380475594493116, 0.048458149779735685, 0.12015018773466833 ;
}
probability ( w2_f8 | w2_f9 ) {
    table 0.16740088105726872, 0.17146433041301626, 0.3788546255506608, 0.19148936170212766, 0.41409691629955947, 0.21026282853566958, 0.00881057268722467, 0.26282853566958697, 0.030837004405286344, 0.1639549436795995 ;
}
probability ( w2_f9 | w2_f5 ) {
    table 0.5355191256830601, 0.02631578947368421, 0.15782828282828282, 0.23076923076923078, 0.4644808743169399, 0.9736842105263158, 0.8421717171717171, 0.7692307692307693 ;
}
